31796 10
The 0.9929858 -0.28145584 -0.5025203 0.32767287 0.50201386 0.13185716 -0.87579155 -1.0603648 -0.57676876 -0.5512796
I -0.17195901 -0.619496 -0.5258368 -0.6758212 0.8548776 -0.16681951 0.20991954 -1.3355218 -0.83852035 -3.9421654
This 0.11168952 -0.045096047 -0.37416658 -0.4024256 0.6696646 0.20172165 -0.21948904 -1.2611502 -0.8962414 -1.5302368
2012 2.6052687 -0.20121396 0.674478 1.1665143 0.59514976 -1.3760674 1.3035401 -4.690379 0.9638369 0.5366684
one -0.2540687 -0.7979649 1.0866994 0.11112213 0.7845149 -1.5938929 -0.7159481 -0.94966996 -0.40574732 -2.4999242
get -0.17616598 -0.25620097 0.44360197 0.21249992 1.8374476 -0.9154485 -0.29815412 -0.29890132 -0.037261937 -3.4890804
Source 0.6675361 -0.36811358 -1.9335004 -1.2502954 0.50374967 -0.88349 -0.26697385 -1.8397598 -0.49953848 0.8714635
like -0.37770852 -0.8689471 -0.4459382 -0.47217786 0.81149596 -0.7782889 -0.23935653 -1.0744221 -0.0388437 -2.8224494
time -0.5206853 -1.6138049 0.3389947 -0.2294375 1.0568558 -1.686654 -0.73913664 -0.66629416 0.12507743 -2.9545617
You 0.28361154 -0.4544748 -0.7807108 -0.066938154 1.218117 0.5161744 0.1613468 -1.0795417 -1.1334494 -2.7171621
For 1.972885 0.42773062 -0.6801194 0.23261206 1.5401136 0.052943952 0.25175378 -0.6937195 0.5424307 -1.6591884
new -0.28050026 -0.9450354 -0.49351406 -1.31859 0.58430743 0.47640082 -0.23531823 -1.6942823 -1.2341795 -1.7014099
A 0.7175686 0.09239936 -0.8852872 -0.27558374 1.173376 0.65384054 -0.270493 -1.4513565 0.6674626 -0.24531732
people -0.58370095 -0.66604894 0.8779821 -1.359793 1.1224866 -1.4021045 0.44493073 -1.6941243 0.35269734 -3.1665473
In 1.031114 -0.68078864 -0.55436134 1.1939675 1.1456227 -0.6579553 0.079206705 -0.8374961 0.21519926 -0.6474972
tmime 1.3063161 -0.056487195 -0.8191698 -0.36292937 1.0213023 0.028976064 -0.8482698 -1.44017 0.02357804 0.32859132
It -0.80178374 -1.2516644 -0.5200526 -0.12654498 1.0667939 0.054844815 -1.6411616 -0.74370223 -0.74856144 -1.9417986
also -0.74688375 -1.4421574 1.140244 0.11461769 0.5270281 -0.9822623 -0.6175965 -1.9494394 -0.32930008 -1.7183613
We -0.052288055 -0.35196948 -0.24282503 -0.08814712 1.906486 -0.09198009 -0.2185968 -0.26607725 -0.8223069 -3.4977717
If 0.08178044 -1.2977709 0.15807019 -0.7602694 1.5384021 -0.96840876 -0.07758146 -0.26775795 -0.290431 -4.2512355
would -1.0505271 -1.5736121 0.360207 -0.92573136 1.236821 -0.5641992 -0.5098526 -1.2761157 0.07759061 -3.1806066
cancer -0.7687522 -0.34247744 3.6112404 -1.7971565 3.6657617 -0.92472774 -3.1215832 -0.7145532 1.5023158 -1.4986876
furniture -2.7095425 -3.3735495 0.90894765 -2.3729725 6.306476 -1.1320608 -3.24924 -6.0330048 -2.297948 4.2765183
see -0.42312804 -0.15811911 0.31269813 -0.75775087 0.968083 -0.4380001 0.2507473 -1.5850421 -0.6250823 -2.4890363
Chair 1.7463009 -1.5397252 -3.699082 1.3755697 3.801986 -2.8386285 -0.52630365 -0.19548249 -2.5002623 -0.4805871
may -1.3724675 -1.8336099 1.0129197 -1.5926453 1.5642802 -0.89505064 0.7297305 -2.3133786 0.38214162 -1.9911109
What 1.082171 -1.2452332 0.38803267 -0.80557543 1.9065585 0.8852602 1.0153944 -1.3035245 1.4287096 -1.8692011
use -1.5728624 -1.1308897 1.018487 -0.7656851 0.6730204 -0.6345659 -0.033131987 -3.0044086 0.007237949 -1.9701971
it -1.0871344 -1.2922208 -0.4238161 -0.27767277 1.5392336 -0.98531353 0.384765 -1.3820624 -1.3048311 -3.5810277
Cancer 2.2470434 1.2305701 2.3310754 -3.33874 4.9318924 0.058956925 -3.160524 -1.1151664 2.1730554 -1.2074665
way -1.7073525 0.3302434 -0.13937315 -1.1946864 1.3172711 -1.2953937 -1.25742 -1.1111257 -0.600493 -3.1797216
best 0.0104168495 0.10320449 0.35590824 0.22212797 1.397243 0.17420547 -0.9601273 -0.45418963 -0.87918717 -2.9039407
really -1.1094747 -0.80715847 -0.11729435 -0.55534464 1.2343965 -0.47091982 -0.6045896 -1.3544638 -0.2809444 -4.269718
New 3.2676272 0.15520808 -1.9372444 -0.9500234 0.8564389 -0.5442709 0.81839496 -2.8032525 -2.2545645 -0.12249408
Outdoor 4.3059783 -0.30663732 -1.4958932 0.5372729 3.4909022 -2.2101784 0.21146676 -0.15324117 -2.0653636 -1.5632088
music -0.6254374 -0.47401837 0.039144788 -2.05398 -0.7701064 -1.3096732 -2.0887773 -2.3322854 0.8175694 -4.063771
pm 3.0039153 0.28097302 1.3446015 1.5192935 1.1502616 -2.0784435 0.7297162 -4.198442 1.8993926 0.62404716
Home 1.8770077 -2.103643 -0.6261015 0.51526976 2.019675 0.23206198 0.28341302 -0.6504845 -0.920262 -0.5841469
know 0.22368559 -0.70039874 -0.8250376 -0.35880038 1.8101748 -0.33967018 -0.031940483 -0.18263084 -1.3416547 -3.3894076
2 2.107575 -0.15932731 -0.2538927 0.7407458 2.1213913 -0.9025877 1.5933758 -1.765458 0.25300086 0.15383044
first -0.58853227 -0.85870177 -0.3197364 0.46050623 0.9247504 -0.78417313 1.1027948 -2.2186923 0.45243257 -2.035344
read_more 0.62316 0.16811308 -0.78992784 -0.4189476 0.8017204 -0.86024576 -0.46962094 -0.68165433 -0.32800615 -0.06435632
many -0.8955058 -1.9050822 0.76940423 0.60274696 1.2522719 -1.5282311 -0.88009566 -0.8978557 0.19203556 -1.9232821
information -0.250032 -1.6858362 0.7408248 -0.10141678 1.5939579 1.0366578 -0.20213784 -1.1250554 -0.7419389 -2.4609327
work -1.0199206 -0.8831447 0.9866299 0.8228308 1.2615118 -0.5800417 -0.69727886 -1.443875 -1.659855 -3.1541922
well -0.5031244 -0.70702755 1.5142281 0.49534017 0.96503955 -1.0982245 -1.3957707 -1.1679485 0.6512917 -2.3807793
find -0.321862 -0.8852047 -0.4204798 0.29166162 1.9061515 0.22481409 0.3229809 -0.7487565 -0.039482556 -3.5423198
2011 2.0553172 0.51843023 0.4145271 2.0208535 1.133827 -0.32478362 -0.09174131 -2.5363245 0.5552165 0.40159786
Your -0.29888976 -0.9501689 -2.054589 1.2998178 0.98642176 -0.4843983 -0.19714366 -2.175148 -2.6249504 -0.6934082
make -1.4141521 -2.2436514 0.49473447 -0.29573408 0.932565 -0.78597903 -1.165415 -1.5313661 -0.57706964 -2.4085917
good -1.5479451 -0.965879 -0.20916086 -0.8855396 1.5823427 -0.9960314 -1.3964936 -0.6632642 0.04042172 -3.3710163
Comments 0.7322447 0.6415719 -1.6200606 -0.052919533 -0.40497717 -1.7946877 -0.052592527 -2.2561367 -0.9630182 -0.4802005
With 2.66035 -1.3074917 -0.19510847 0.9995683 -0.30186775 -0.008095447 -1.6872612 -1.4032649 -0.5675125 -1.3571614
And 0.9202163 -0.57197785 -0.9686838 -1.0970814 0.9438016 -0.5811708 -0.5239359 -0.07160111 -0.22821093 -2.0393023
could -1.3990868 -0.8688994 0.6181395 -0.590992 1.5402344 -1.0425688 -0.23449172 -1.3438214 -0.4631736 -2.9979177
entry 2.3616362 -1.538383 -0.25509942 0.909859 2.307374 -0.094286874 0.15920438 -0.20717762 -0.09722295 -2.783221
products 1.4257282 -0.60906553 0.6854486 -0.8778257 1.88751 1.0732378 -0.84421927 -0.27213153 -1.1292107 -1.6208208
Get 2.3950005 -0.27062586 0.60617393 -0.5944543 1.9039123 1.9971377 -0.2524553 -1.4971124 0.6792384 -1.9733496
great -0.59486085 -1.0108896 0.24414544 -1.1134118 0.44127366 0.10748437 -1.4024707 -1.3802577 -1.2133906 -2.492828
much -0.87108237 -0.76570266 0.62878627 -0.027021881 1.9381768 -1.2572446 -0.9689704 -0.43010607 0.41843686 -3.8897495
online -0.7257685 -0.6908972 -1.8226256 2.0748358 1.174472 -1.0454713 -1.3699745 -0.8053289 1.2349238 -2.5945022
years 0.32059282 -0.68338406 0.65185535 1.018865 1.0793687 -2.0242715 0.6484324 -1.6730896 1.9090608 -1.5381923
want -1.5164173 -0.7396658 0.34315678 -0.35652027 1.2849735 -0.69106627 -0.42961875 -1.7450516 -0.28583756 -4.0675855
us -0.9971463 -0.42659265 -0.385195 0.040852796 1.0996583 0.5495512 -0.11879297 -1.8947173 -0.69317216 -3.3763144
year -0.32971576 -0.37793258 1.285423 1.2502911 0.91155124 -1.3628025 0.62620765 -2.4186897 0.8413241 -1.7210721
even -1.1825413 -0.98105645 0.2695737 -0.0917196 0.94931847 -1.5605664 0.09715743 -1.7123756 0.18868113 -2.8079448
More 2.0581577 -0.29005206 -2.4592044 0.5214511 0.51245356 0.63343847 -0.96700543 -1.5497545 -0.48312795 -1.7774242
price 1.116572 1.0592558 -0.88095665 2.27672 2.0863411 -0.3108333 -2.338057 -0.23165248 0.54054993 -4.5013633
3 1.235509 0.30697164 0.2116788 1.2402638 2.935217 -0.74096584 0.5472988 -1.7745854 -0.95174694 1.3834717
x 3.3176718 1.9001998 0.010754568 1.5191708 0.17302848 -4.1449814 -2.5940232 -2.0222054 -0.5466641 -0.5854231
site -1.9715973 -0.54840404 0.22978532 -0.3384528 -0.24111095 -0.97715473 -0.31494078 -3.6571834 -0.31558537 -2.8951697
Grill 3.7725852 1.8894033 1.1033163 1.305641 3.5590856 2.0957792 -2.900191 -1.5372276 -0.29894587 -1.8692439
product 1.1985618 -0.23070373 -0.3178683 -1.0933174 1.6263984 -0.19544204 0.3838614 -0.24465767 -0.9060493 -2.0974941
To 0.02455461 0.008597751 -1.6158888 -0.027769577 1.5613347 1.2038714 -0.30049422 -1.3146033 -0.93915856 -1.3813735
look -0.9100486 -1.2417252 0.5200229 -1.0520715 1.0810881 0.0022913315 -0.26326478 -1.5853826 0.35056338 -3.1826694
two -0.4688177 -0.81531405 1.5374858 0.15925764 0.87222093 -1.4841588 -1.167512 -1.3019202 -0.37172553 -1.3048416
help -1.1583678 -2.1564174 1.3832091 -0.25661904 1.4575291 -0.5502212 -0.71871567 -1.4027689 0.11092842 -3.1659222
Â 0.98859274 0.5631938 -0.5252464 -0.32486993 0.70005774 -0.2852609 -0.73034024 -0.8743563 -0.45004967 -1.2513373
said -0.94008666 0.35135174 -1.179502 -1.3491484 2.4559505 -0.90915656 0.58831805 -0.7934327 0.5472423 -1.920001
Black 3.7269573 0.18821952 -1.7859476 0.4125243 2.03179 -1.6202016 -1.9816833 0.015439826 -0.961235 -0.60556483
back -1.1631335 -0.7361614 0.044230826 -0.7339548 1.8719938 -1.2886693 -0.29433638 -0.7069335 -0.323249 -1.8378663
need -1.0791268 -1.8805026 0.8843628 -0.8192642 1.8991538 -0.9503964 -0.094265565 -0.92498374 -0.5486258 -2.9319115
5 1.7761296 0.055016138 -1.1734382 0.6511648 0.31991163 -3.2212338 0.28582197 -1.6052299 0.24895155 -0.5882991
Top 3.8106844 1.4781988 -0.22736499 -0.6538264 2.437547 -0.46175703 -0.49140427 -0.7790101 -0.088149466 -0.20688881
But -0.99805 0.027507827 0.29184538 -0.41935784 1.3395822 -0.5039781 -1.0181589 -1.0388736 -0.80716866 -3.6359892
Set 2.3307698 1.5336785 -2.1879492 0.94616026 4.834199 -0.8137031 -0.89387894 0.035909005 -0.019329306 -1.4725068
Now 1.8608632 -0.7579938 -1.1485915 -0.06749048 1.5150151 -0.27444056 -0.483635 0.13002811 0.044328414 -2.0808887
1 0.99106425 0.587141 0.7095883 0.022275629 1.3499563 -0.95833886 1.4420911 -3.1566565 -0.7688883 0.7980573
patio 0.4981106 -5.595571 0.5724696 -1.2933224 2.950306 -1.3307781 -4.795508 -5.27136 0.69422895 3.877195
Google -0.4503239 -2.0007148 -1.5214819 -0.1679629 0.6007599 0.02283816 -0.58789355 -1.469195 1.6423157 -3.0129094
comments 0.59329945 -3.713974 -1.2801845 0.058878187 2.6800973 -0.68234605 2.4301224 -2.194201 -0.85017306 -1.4708452
RT 1.1646552 0.045947533 -0.69045687 -0.26965782 0.86761624 0.099791676 -1.0171268 -1.5445375 0.10360261 0.18757522
Prices 3.8877306 -0.010480372 -3.127729 0.55088925 3.67592 0.081097096 -2.0575812 0.13404976 -0.28675377 -1.6869128
am 4.4532847 -0.70242065 1.5527467 1.7702034 1.2929552 -1.5284587 1.545435 -5.425852 0.93077654 -0.27782872
comment -0.678642 -2.7221344 -2.4459321 -0.3432056 3.0685577 0.6342471 1.8268101 -2.6089306 -0.09025179 -1.3828691
Table 3.532802 2.2512658 -1.0556673 0.42902875 4.944613 -3.0323887 -0.80943376 -0.35021362 0.5765681 0.15299775
right -1.3225741 -1.7971953 -0.30806822 0.03736919 2.1685522 -1.2514848 0.017030649 -0.7098501 0.42499337 -2.5304244
Price 3.4628603 1.1851205 -2.2047467 0.74248415 2.0953476 -0.59751356 -0.66762453 -0.9319098 0.73100686 -2.246942
Read_rest 4.1788855 -1.2452948 -0.5703069 0.7251886 2.756959 0.46352687 -0.2421361 0.051487174 -0.43944028 -3.701345
4 1.039487 0.18231297 -0.85647494 1.2518016 3.0417407 -1.742312 -0.37717068 -0.16907883 0.62039506 0.45456135
using -0.60814404 -0.33045995 0.058464516 -1.5131669 -0.37137794 -2.0258346 -1.5839865 -1.5564848 -0.84736735 -2.4123118
By 2.6238232 -0.0987363 -0.35698697 -3.2247813 1.69191 -0.9635594 0.3401309 -1.585484 0.79761994 0.5701784
content -2.6373875 -0.5636195 1.5306721 -0.7185002 0.8935009 -0.63875854 -0.76808935 -3.5942886 -0.3218547 -1.7321358
go -1.0698057 -1.0137314 1.0266135 -0.46833593 1.5105107 -0.49430442 -0.1332477 -1.5527555 -0.9411273 -3.1224692
Twitter 0.36722082 -2.2685997 -2.6148849 -0.7466515 -0.12605765 -0.73300976 -0.22516446 -2.0362267 1.2242849 -1.6006174
Products 3.4707813 -0.5590044 -2.4452698 0.60088986 4.0499935 1.8328246 -0.9759772 -1.4627798 -0.43299899 0.56898904
last 0.14148068 -1.3270521 0.66576666 1.4509121 0.6186042 -1.7078202 1.4696752 -3.0798805 0.6941813 -1.0511057
Sale 2.9969742 -0.9936737 -2.5619776 3.0376318 2.8955524 0.24454188 -0.72281456 -0.8905974 0.65471935 -2.6590998
still -0.66095346 -1.3099363 0.13656016 0.047100443 0.8887364 -1.0938102 -0.7825073 -1.0475811 -0.02616858 -3.3150282
February 4.10848 -0.611343 -0.27165553 1.3793043 0.35328686 -3.0770595 0.79041624 -3.259619 0.7816111 -0.05340937
more 0.88939863 -0.8684187 -0.0882519 0.12777163 0.8466361 0.5305175 -0.6395219 -1.3018405 -1.2417009 -1.6821303
used -1.1198195 -0.8861439 1.3154632 -0.50718606 0.6882346 -0.9123913 -0.04602289 -2.4339871 -0.74749243 -2.6027482
case -1.7512147 -1.8240353 1.4731402 0.13763195 1.875264 -1.0038582 -0.55189323 -1.8946878 1.3178431 -2.17222
without -1.4041188 -1.4454223 0.5227477 0.42514437 0.74224204 -0.51416415 -1.8150375 -1.6752795 -0.65966856 -3.5906336
going -0.6744088 -0.9132093 0.61665237 -0.46775565 1.2268001 -0.73693836 -0.34401214 -1.258317 -0.28599173 -3.8880548
it’s -0.83603466 -0.75928336 0.31977177 -0.19915406 0.8257751 -0.8034215 -0.94697356 -1.2713977 0.12626846 -3.3568366
order 0.8112712 -1.2936468 0.7698483 0.21661 2.1795301 0.5229893 -0.3276719 -0.032206997 -1.0739182 -2.6902568
life -1.3600541 -0.5917597 1.4428884 -0.85173047 1.5314192 -1.0809844 -1.3126044 -1.1880201 -0.32492778 -2.0509753
home -1.239332 -1.1994376 1.3204134 -1.3436912 -0.003763018 -0.87521756 -2.672601 -2.4065166 0.5694717 -0.73962486
things -1.1420588 -0.9877615 -0.12556975 -0.65507543 1.3102716 -0.33069468 -0.89850694 -1.0779403 -0.13040292 -3.859278
this -0.28451306 -2.868547 0.059471622 1.7243811 2.293968 -0.9189644 0.48996538 -1.1495041 1.2261194 -3.357367
SEO -0.45329446 -2.4474826 -0.5150312 1.4383292 1.2970556 1.6107697 -1.9757651 -1.4020109 1.0900985 -2.7650938
Best 2.7990813 -0.40606934 -0.69087714 1.9687797 1.6133337 1.3835607 -1.5607414 -1.5983008 0.49588814 -0.011915674
every -1.1196024 -0.92259127 0.26500338 0.21395954 0.8743269 -1.8401903 0.43948066 -2.0181499 -0.54612154 -1.8637835
love -0.38230747 -0.29571578 -0.19782573 -1.1754334 0.540257 -0.43971303 -0.5671368 -1.4443339 -0.5895338 -2.6766558
think -0.009838976 -1.4457612 -0.8143625 -1.3644445 1.7595913 -0.29400566 1.4938084 -1.3707356 1.0029901 -3.3322468
How 0.69495386 -0.9392761 -0.38974595 -0.11973469 1.8741082 1.4877752 0.2333329 -1.1918089 1.0177717 -1.8334029
I_think -1.2686665 -0.41937044 0.015461833 -0.07495811 1.0366536 -0.4969143 -0.43165937 -1.87696 -0.11163321 -3.6389115
day -0.29522827 0.19780952 0.70600307 0.6643354 0.34352133 -2.1993706 0.45571274 -2.2075481 -0.92981803 -2.6308517
Round 5.4707127 1.1517062 0.351921 0.77871084 4.264293 -3.6596105 -0.8094262 -0.4101798 1.5319289 -0.74648994
might -1.8405983 0.23971322 0.5588595 -0.39348912 1.0224274 -0.8957668 -1.2007532 -1.8532282 0.08352267 -3.5162857
He -0.67450196 -0.21928713 0.13485096 -0.5988952 2.0667548 -0.5454371 -0.53403693 -0.5094779 0.2420085 -1.9658996
Cover 4.898323 0.19506598 -0.367725 1.696045 3.4609907 -1.2280663 -1.4731785 -0.1605546 0.46466208 -2.2070224
now 0.20525643 -0.120114274 -0.07492034 1.2954463 1.4590971 -0.76012653 -0.94070613 -0.24445231 0.84047556 -2.9963238
free -0.4077986 -1.6713005 0.290825 0.21375562 0.49706715 -1.1674635 -2.2342074 -0.54334766 -0.8266612 -3.1309469
There -0.26072806 -1.9104979 1.7730148 -1.0297798 2.4883683 -0.4896391 -0.507033 -0.3628276 0.18487467 -1.8790588
buy 1.0051947 -0.64972746 -1.3801312 1.0643269 1.8860157 0.63208395 -0.3772049 -0.5638019 -1.3526489 -2.795472
Search 0.9535926 -0.19581932 -0.75395435 0.39892918 3.2718642 1.921583 -1.1945512 -0.5514108 0.10745978 -1.2398554
website -1.2598065 -2.2567928 -0.48486128 -0.9078174 0.91209745 0.74666476 -0.36065668 -2.3104305 -0.6175651 -1.5179762
UFC -0.6212815 0.5171218 -1.3457077 1.0048345 1.882467 -2.5755632 0.33807078 -2.6157994 -0.5368981 1.4162856
News 2.4299197 -0.02858545 -0.76664454 1.9949907 2.3400133 0.7789462 0.32467234 -1.9449457 -0.26406333 0.049176775
Related_Posts 1.2599545 0.57005525 0.017304732 -0.45073026 1.2150674 0.79035574 -0.8646467 -1.9046211 1.5843213 -0.5164394
My 0.45478532 0.25999418 -0.25614622 -1.104687 0.6102136 0.8516598 0.0028948777 -2.147633 -0.49986035 -0.97774607
something -1.1639917 -0.5893463 0.7075752 -0.14081593 1.7224888 -0.15118863 -0.18559846 -1.460361 -0.5177149 -3.4917018
Related 2.687509 -0.7166215 -1.5265638 -0.2324847 3.5148346 1.4808359 0.72316396 -1.4733806 0.7659004 0.005277572
take -0.83457464 -1.2708548 1.0146513 0.2616181 0.93612784 -1.9834045 -0.6037206 -1.2654592 0.53006804 -3.3128285
different -1.5878185 -1.4169436 1.856329 -0.6569118 1.5869429 0.09573816 -1.5327946 -1.7264558 -0.37177688 -1.920681
lot -0.76070994 -1.5009848 0.8984251 -0.34118572 1.150082 -0.8501454 -1.0843532 -1.0207185 0.009499836 -3.693078
Deals 3.5384903 0.27362254 -1.0851592 1.0613334 2.307787 -0.7021757 -0.26073802 -0.15488774 -0.91931057 -2.0760865
give -1.4012218 -1.6940981 -0.28030518 0.89514303 1.0558293 -0.57466495 -1.9376845 -1.1123277 0.60933524 -3.123003
Powered_WordPress 2.7965407 -0.27915928 -1.8413187 2.1077049 3.0065875 -0.7344461 -0.030226849 -1.1019477 0.22868201 -0.6883396
One 1.7989126 0.059661016 0.0083295535 -0.6102974 0.34687176 0.89124817 -0.4285972 -1.4946635 -0.21292607 -1.4909271
As -1.0518348 -0.5453195 -0.21356857 0.27149764 1.376699 -0.037864424 -0.27150637 -1.4202422 0.018225132 -1.8226243
around -1.2622447 -0.96623033 0.23116763 0.2059886 1.1546988 -1.2925074 -0.17865644 -1.6390907 0.31932375 -2.0025313
part -1.2889922 -0.4021908 0.391682 0.6399486 0.6366323 0.029800309 -1.1040273 -2.2032046 0.026099449 -1.5123143
Shop_Online 3.3188875 0.5073388 -2.2213857 -0.09070228 2.704547 -0.59617823 -0.6456849 -0.23224826 -1.4928321 -1.8938752
Is 1.1519822 -0.24478376 0.11944565 -0.938091 2.2812257 1.2650782 -0.40301389 -0.4773488 0.8638673 -1.3899771
Wood 1.4274615 -0.19719791 -2.5837061 1.0225054 6.6875257 0.2828378 -1.2159228 -0.69444364 -1.8357843 0.6491283
thing -0.99809784 -1.1096247 0.32553092 -0.75427634 1.0462806 -0.18722264 -1.3645781 -1.2403454 0.48852602 -3.965447
Created 2.8315105 -0.20622471 -1.9796506 2.9368439 3.8856044 -1.4012893 0.40098995 -1.3465828 0.35672197 -0.30113518
Post_navigation 0.1446238 -0.1908043 0.019203177 -0.03833152 0.39569938 -0.07194031 -0.21311343 -0.277284 -0.010097067 -0.13158412
long -0.74970424 -0.41748208 1.4760171 1.0995946 0.28713343 -2.0191092 -1.232273 -1.8296369 -0.43017918 -2.044649
you -0.8860488 -0.50670487 0.18377763 -0.9136203 1.8084654 0.23527537 -0.31208822 -1.254102 -2.2232237 -3.5331874
When -0.25869113 -0.88577145 0.004945943 -1.0717103 1.5856975 0.3180289 0.5568398 -1.2752211 -0.062489595 -2.2552178
next -0.8370344 -2.2051494 0.052244857 0.7344851 -0.11768108 -1.2218863 -0.15394588 -2.58964 0.22243531 -2.2660873
family -1.459959 -2.082009 -0.09731543 -1.0054935 0.90000665 -0.36873084 0.31297123 -2.5715475 0.20875189 -1.66936
set -0.95169467 -0.48018765 1.1521217 -0.04599808 1.1072866 -1.0664154 -0.97319055 -1.6070906 -1.5829651 -0.6368007
Of 1.7214007 2.5180578 -1.7131656 1.2310115 0.6139348 -2.0330434 -0.16710429 -2.2957125 -0.9925882 -1.5038942
10 2.2741275 0.0010751974 -0.34353623 -0.7549597 0.35184953 -0.63181967 0.011140941 -1.6164255 0.3274953 -0.11071329
outdoor -0.43136302 -1.8258867 2.3282423 -0.7525414 1.6226918 -0.54639703 -4.5161533 -4.39361 -0.54220015 2.3312073
Patio 3.432643 0.85172206 -3.1124568 0.58169365 4.29618 -3.5008085 0.032916646 -0.70663583 -0.6372558 0.027233906
Services_LLC 0.052624933 -2.9717658 3.2546837 3.246484 5.9738903 1.1270286 -0.32738152 -3.5413113 -0.09347823 -5.1464376
looking 0.6661943 -1.2995985 0.20063591 -1.3550415 1.186551 -1.9768544 -0.53216785 0.27148747 -0.41182554 -3.2568026
design -1.9263076 -2.172597 -0.6456931 -0.30852827 -0.010302754 0.75974286 -2.8688436 -2.9461846 0.26503557 -1.2324858
data -0.9383982 -2.519971 1.5303843 -0.70486367 0.8304946 -0.40891597 -0.8175064 -2.113094 0.48058325 -2.265891
Categories 2.1763551 -0.4965691 0.3628691 -1.5640852 0.8144219 -0.64805776 -0.27296898 -2.2103047 2.1669958 0.3691189
No 1.2188132 -1.261493 -1.8860105 -0.87958497 0.5453258 -1.5863675 0.31820762 -0.97467345 0.5993122 -1.2041391
able -1.4034506 -2.7992227 1.437416 -0.2093871 1.5154569 -1.2953804 -0.90959495 -1.3231993 -0.48426244 -3.5535867
So -0.6199875 -0.2407117 -0.5259223 -0.22071636 1.7702941 -0.9201907 -0.59340477 -0.29022062 -0.16751157 -3.8052456
I’m -0.30890638 0.22966278 -0.33358678 -0.6358777 1.2918973 -0.73299736 -0.33377886 -0.83226913 -0.3599974 -3.45502
health_care 1.8429836 -2.922126 2.6811001 -1.3472364 1.707477 -2.489044 -0.0138242375 -1.0808934 2.3221376 -3.338912
amazoncom 2.2393787 -0.8679747 -0.9965184 1.3403275 2.6319222 -0.2506243 -0.07515415 -0.19364582 -0.31178907 -1.0827028
insurance -0.22525135 -1.346906 2.6109343 -1.5241197 3.786207 -0.62285835 -1.3938786 -0.61735713 2.77143 -3.9568973
world -0.6978346 -1.6335948 0.109648556 -0.017234748 0.2250202 -0.93820035 -1.254185 -1.5041054 0.20644122 -1.9722393
affiliate_advertising 0.40123942 -2.914228 3.333867 2.9469457 5.9731693 1.226579 -0.61550087 -3.3376555 -0.09671715 -5.1505933
program_designed 0.4835167 -2.6594288 2.7417638 2.7321134 5.5890765 1.072203 -0.7416786 -2.9712145 0.013756821 -4.629572
Associates_Program 0.29227984 -2.6683993 3.1788836 3.0091534 5.916359 1.0547292 -0.45639974 -3.5097995 -0.1286516 -5.251862
advertising_fees 2.1451154 -1.584427 0.0021911631 1.8630621 3.662121 0.47814894 -0.38363722 -0.8333242 -0.38269812 -2.3508813
provide_means 1.0241715 -2.2938828 1.9728822 2.6269457 4.9357104 0.69740427 -0.424328 -2.2875361 -0.28517577 -4.0262246
advertising_linking 2.321693 -1.0673054 -0.65509564 1.695497 2.9773881 -0.064108685 0.017530592 -0.5393751 -0.30233687 -1.6921891
participant_Amazon 0.46803334 -2.5408359 2.6088574 3.2720222 5.153275 1.0246062 -0.18031366 -3.0429773 -0.11634123 -4.791237
sites_earn 1.535088 -1.948248 0.97219354 2.2368493 4.158167 0.43202782 -0.19042954 -1.6621686 -0.24217121 -3.2667418
legal -1.8231511 -4.121941 0.36884573 -1.2445449 1.6410823 -1.7261417 -2.387999 -1.2206299 0.16199957 -1.325957
Main_menu -0.030376602 -0.058385395 0.030198883 -0.0043584825 -0.099794365 0.08417704 -0.073388875 -0.049304068 -0.026570808 -0.054523148
Click 2.1302752 -0.9511614 -0.917134 1.1670349 2.627425 0.73916644 1.2934877 -1.0758023 0.57826287 -3.50399
accident -3.0845964 -2.3174255 1.0823553 -0.61987096 3.2228134 -0.88506806 -0.74561226 -2.432294 2.2409775 -1.6539181
account -0.21694373 -2.1702518 -0.30656254 -0.686305 0.81798476 1.7302191 -0.19977713 -2.267244 0.34330988 -1.645015
blog -1.1695703 -2.839124 -2.3119483 -2.254244 1.7197242 0.6076432 -1.0064019 -1.9062077 -1.8357538 -0.9700362
is -1.4670101 -0.4038967 -0.14645183 -0.8203233 2.618993 -1.0001553 -3.340282 0.41137716 -0.78294885 -2.7065074
Patio_Table 3.8610249 -0.3405969 -2.21003 2.8204372 2.8742523 -3.8164687 -0.1046945 -0.76217353 -0.101384275 -2.6591656
video -0.2063795 -0.86383843 -0.29288983 -0.6719903 -0.27350163 -0.2069062 -1.395324 -1.7600058 -0.02767748 -2.1922162
Big 2.513724 -0.8118291 -2.4132793 -0.22271179 2.4556465 -1.2079722 -2.1183105 0.3797447 -2.3511095 -1.3443229
full -1.1318319 0.4052114 -0.17719679 1.3868138 1.5061274 -0.86570185 -0.48094344 -1.8028374 -0.8269219 -2.0017576
Today 2.864329 -1.3830508 -2.0706716 1.3968855 2.251815 -0.7624921 -0.8289157 -0.16923952 -0.9275352 -2.011774
Relate_keywords -0.017664261 -0.77938896 1.3678411 -0.6445587 3.1137023 -1.5154907 -4.1338844 -1.8441024 -0.76479614 2.5915816
top 0.21806157 -0.76418895 0.72414905 0.085890196 1.0992694 0.36301437 0.71614444 -2.2375822 -2.337748 -0.60646325
Stainless_Steel 2.680055 0.7850478 -1.648627 1.0354686 4.4701815 3.8328278 -3.6783724 -1.9870448 -0.52376425 -1.3737732
Free 3.0478117 -0.8590968 -1.1364137 0.9052726 0.96494156 2.7140517 -0.514476 -3.2728038 -0.63328564 -3.4135737
made -0.7889148 -1.5291989 1.1140189 -0.095326826 1.1627421 0.5783552 -1.9313738 -1.4514115 -0.70317537 -0.7914146
Chairs 3.2377312 0.2856454 -2.712367 2.2955415 3.60052 -2.7664225 0.02374984 -0.8286474 -1.227556 -1.3046366
show -1.2718351 -1.4946101 -0.015809976 0.8837697 0.64006937 0.16756986 -0.94333386 -2.157907 -1.0652986 -1.5249542
today 0.762395 0.107305534 -0.26697624 1.1427287 1.2420838 -0.06984152 0.6580298 -1.3005031 -0.9608695 -2.1229672
service -2.5565262 -0.86175346 -0.69100034 0.47957477 0.476696 -2.7756753 -2.0654562 -2.2244978 1.2007271 -2.2427232
AIDS 2.4874995 -2.240419 3.0706208 -2.5482671 2.3048525 -0.72080445 -0.56982076 -1.4562452 1.4468068 -0.8721976
grill 1.8636836 -0.46041963 3.6744783 0.2576068 -0.3775366 -1.9863329 -3.7745187 -4.602941 -2.713727 -0.14126638
post -1.0179675 -1.640036 -1.4011906 -0.34977707 1.6794449 0.7966013 0.57064235 -1.8822645 -0.88838553 -2.097268
Post 0.07214834 -0.99145836 -2.4881763 0.39708653 3.657805 1.772261 0.3362031 -1.565425 -0.1999721 -0.63037163
services -0.5139899 -1.9658298 0.15634397 -2.3945234 0.6554507 -1.6952962 -1.1031697 -1.2343067 1.5387731 -2.2464523
On 2.1492865 0.52897877 -1.8126984 0.4328801 0.28396726 -0.0006640001 0.29922125 -2.5840154 -0.6798326 -0.65102947
kind -0.85520834 -1.2849084 1.0694821 -1.2232705 1.2042063 -0.764046 -1.292046 -1.0306616 0.14509824 -3.136434
Cushion 2.5206108 -1.2674047 -6.4263105 -0.92351 2.3813393 -3.1657114 1.349603 -2.3074458 -0.44222313 -3.123499
place -0.20942417 -0.024267016 2.0257008 1.8566902 1.6749586 -1.0603733 -0.3934102 -1.395846 -0.5985705 -2.293935
They -0.707756 -1.0225688 -0.054879107 -0.016849995 1.3850269 -0.3292729 -0.56548876 -0.83084196 -0.06787903 -2.5491948
It’s -1.3869884 -0.49006316 -0.29058653 0.2531128 0.9684402 -0.82129806 -1.1590433 -1.3644595 -0.19133668 -2.2373934
customers -1.3612322 -1.9953936 -1.1410986 0.31909057 0.58534586 0.15645961 0.5749748 -3.0958574 0.87745863 -3.1054237
little -0.9498475 -1.1403228 0.11570346 -0.6954109 0.58208174 -0.74443084 -1.3083313 -1.2507837 -0.18824287 -2.477875
6 2.0137618 -2.0227463 -1.0891329 0.4025791 0.06256383 -3.2264132 0.48705214 -1.9217179 -1.2409772 -0.0020931512
business -2.396567 -2.348589 0.42933798 0.12262744 0.60315305 -0.8126941 -1.4963692 -2.676142 0.012309161 -2.1294239
health -0.53038424 -0.33404177 2.2630773 -1.4755334 2.6527107 -1.3111292 0.17440611 -1.7587525 2.5872352 -2.8883803
provide -2.1550744 -3.323188 0.12923159 -0.24731934 1.2120589 -1.1284379 -0.881087 -2.257808 -0.16022295 -1.3222914
claim -2.7833073 -3.164005 1.1713607 0.012750636 1.9650397 -0.7327192 -1.7088641 -2.4149148 1.1781971 -2.1157804
here -0.26850948 -0.48982003 -1.1126204 1.2057679 0.95438 -0.67253244 -0.6773067 -0.9668581 0.45842472 -2.721747
purchase 2.4437087 0.13150646 -0.30215254 0.113891 1.2469193 -0.5817735 0.017058106 -0.3978958 -0.172182 -3.0944166
Furniture 3.1166544 -3.294939 -3.2137983 1.2978078 2.1026397 -2.5969455 1.5274981 -2.937016 -3.073108 -1.078504
page -1.3728354 0.44537902 0.6168509 1.1134061 1.6254368 -0.092061184 -0.28470054 -2.1565907 -0.41715762 -2.0502918
read 0.6191778 -1.8063451 -1.0988865 -0.46253616 0.8246409 -0.6717586 1.797994 -1.7953509 -0.63189256 -1.4516124
since -0.680191 -0.97618824 0.5246753 1.420888 0.2407657 -1.269039 0.5260038 -3.5632899 1.6972759 -1.7198833
Propane 3.5378084 2.9174676 -1.7931861 2.6992743 5.894235 -0.32133698 -1.1255808 -1.304736 -1.6045866 -2.1288218
TV -0.97265136 -1.492953 -1.655229 -0.66878444 0.6827685 -1.5432107 -1.9910368 -2.3238165 -2.5495045 1.300872
Comment 2.3688133 -1.3314695 -1.8983862 -0.5747703 2.800895 1.0529435 1.6217859 -3.2194858 0.4897735 0.17479475
Brown -0.29723072 -1.1947132 -4.7388406 -3.0388646 3.4817507 0.65527385 -0.26996773 -1.9868318 -1.3352172 -0.8245203
number 0.15313666 -1.5858579 2.9001718 -0.49836993 1.6239923 0.17575632 -0.69311386 -1.5110154 -0.7113059 -2.6526937
big -1.0432432 -1.5639105 -1.5271858 0.20440225 -0.15873511 -1.6165687 -0.86570936 -1.836673 -0.2400476 -2.3589776
put -1.5567857 -0.7293208 0.0695155 0.18149361 0.612412 -1.6838825 -0.9358904 -1.6652318 -0.7195313 -3.1825566
personal_injury -3.2205536 -3.3434362 1.5541626 0.23613249 3.1957207 -0.8540617 -0.8470157 -3.0233605 2.643075 -2.222125
them -1.0837213 -1.3129004 0.8089434 0.33176318 1.9285814 -0.4406309 0.84147054 -1.9442809 -1.0809069 -3.5262344
better -1.0302893 -0.7239144 0.3476081 -0.36286637 1.004798 -1.3172355 -0.48289356 -1.2612889 -0.62804 -3.0776365
that -0.7736471 -1.1708769 0.005583904 0.021238158 1.717809 -0.6108339 0.42686787 -1.2132093 -0.16693074 -2.9826841
days 0.89939874 -3.0530746 0.42694318 0.38748568 0.8032552 -0.8037718 0.3970886 -1.7436482 1.3853419 -1.3991446
including -1.6015464 -2.5415375 2.3730893 0.23627543 2.3186924 -1.0701439 -0.06744165 -2.5286124 -0.7642016 -0.0037474306
Amanda 6.77001 -0.31397772 0.2072275 -2.8041337 3.7972133 -0.51664394 -3.277919 -3.144597 -1.177379 1.8116333
About 2.6663907 -0.022570336 0.5834669 -1.8749529 0.65064216 1.350614 0.5626477 -2.9807289 -0.5010515 -0.9957884
Great 2.9340851 -0.43456882 -1.1821064 -0.037074175 2.5310392 0.8702539 -0.6342437 -0.089108594 0.026959853 -2.4209528
Comments_closed 0.01734991 -0.0063238265 -0.07481395 -0.067420945 -0.0069442866 0.07467582 0.054428697 -0.014826906 0.011723089 -0.09605776
another -0.8355541 -0.23167674 -0.19238262 -0.7828931 -0.6629314 -2.4788818 -0.33222958 -2.8605492 -0.5880803 -2.3738632
important -2.0455496 -2.252036 1.2134733 -0.9899205 1.1591238 -0.5867918 -1.3260591 -2.204878 0.7949373 -2.9171553
to 1.0536288 -2.2806745 1.3805825 -0.21057574 1.2859511 1.271351 0.852043 -2.8330889 -1.4873543 -3.1715205
Read_more 1.9413793 -2.3951912 0.47539532 -0.5536496 3.191789 -0.60973114 0.10589999 -0.5881314 -1.0440882 0.1963405
quality -1.4858781 -1.8525147 0.9565377 -1.0113842 0.45964575 -1.4019269 -2.4509866 -1.6395874 -0.082819745 -1.1674508
say -0.63535154 -1.264041 -0.1380703 -0.6293261 1.6284009 -0.23789832 -0.37883028 -0.8431365 -0.55867696 -3.7797353
These 0.7594485 -2.413666 0.9894025 -0.04792691 1.8100052 -0.239198 1.0684873 -1.122126 0.19128636 -1.172863
Facebook 0.5115753 -0.3232069 -2.3259964 -0.3148399 -0.2723816 0.011596219 -0.10337461 -2.5776134 1.33879 -2.955956
actually -0.9444539 -0.7020776 0.008226978 -0.41384378 0.74778557 -1.1853085 -0.44193754 -1.4610759 0.19286503 -3.4930842
7 2.6261137 1.6799536 0.17204961 1.2833799 1.2267458 -1.529448 0.026997115 -1.9129457 0.6852029 -0.39206412
Just 1.0850326 -0.23496975 -1.6506438 -0.5554953 -1.1650127 -1.5656916 -0.018602597 -2.8567936 -0.81536406 -1.8125882
After 1.164678 -2.091608 -0.43374032 0.12809575 1.7826979 0.31970018 0.31989095 -0.90544915 0.08714556 -0.45003158
come -1.0270314 -1.1108061 0.96844655 -0.49635676 0.21632 -1.0003074 -0.35786575 -2.44224 -0.87217945 -2.5771399
mobile -0.6284933 -1.2947282 1.6414496 0.512799 -0.7817936 -0.66805494 -1.2143275 -3.402809 -0.69102705 -3.359327
World 2.3932693 0.55379915 0.43145633 3.4294295 3.5278287 -1.5235674 -1.5183959 -0.5960741 -0.659023 -0.06353753
Day 4.4354897 -0.541091 1.6665344 -1.6174397 0.21451843 -2.0960684 -1.198586 -1.4107306 -1.7425028 -1.2899755
table -0.42286685 -0.2720917 2.5600777 -3.078126 3.7742326 -3.2576706 -0.68920976 -1.265649 -2.0732758 0.23051617
song -0.31023 0.3914969 0.11452249 -2.2959404 0.25119892 -1.2449999 -1.2148252 -1.5567575 -1.1993477 -3.4765272
got -0.5221511 -0.047113452 0.14560206 -0.65303004 1.6272146 -0.7654834 0.48642635 -1.417475 1.2744164 -2.9311523
money -0.27041358 -1.8741987 -0.4748232 -0.12505522 0.6920048 -0.59923184 -1.2532452 -0.6553786 1.1126355 -3.6593277
care -1.7879595 -0.77755505 -0.17375025 -1.3483971 1.0221255 -1.9290477 -0.9107494 -2.5424783 3.3816113 -3.24332
20 1.8407894 -2.354378 0.19563015 2.0792937 1.1856318 -0.27089053 0.8206498 -1.9601078 -0.4681704 -1.1389081
compensation -2.5374787 -3.4570997 1.0771472 -1.5799702 2.475295 -1.9796637 -0.76503885 -2.1163695 1.7624599 -1.987912
All 1.3045586 -1.3269584 -0.07404908 -0.5875299 0.15616177 0.018189268 0.32812348 -1.7407235 0.07738991 -1.1318955
companies 0.040896084 -2.0092673 2.7529747 0.32297048 1.6888691 -2.0856125 -1.0291344 -1.0505999 1.79284 -2.6641142
Buy 3.3860676 -0.25831637 -1.5074753 -0.77395415 3.1298952 -0.7821093 -0.79558116 0.36932182 -2.0074446 -1.9775937
done -1.0309548 -0.3127303 0.2600845 0.17255826 2.1695504 0.29331568 0.05459322 -1.3145999 -1.3681461 -4.3175015
app 1.2332692 -1.2669438 1.1445068 -0.092058815 -1.3649517 0.46863508 -0.73298573 -3.450271 0.18962154 -2.6420631
Video 3.4328082 0.28457347 -1.4034114 2.1890185 1.4928241 -3.2657104 -0.51376253 -2.3606768 -0.9637203 1.0960821
Cuisinart 5.238225 -1.9972935 0.6719402 -1.3472103 3.3328302 1.6099801 0.38951522 -1.4517559 -0.33254337 -2.0774024
search -1.5971552 -2.305272 0.607171 -0.80357856 1.2597888 1.1341989 -1.8379439 -1.9629987 0.6002538 -2.5713038
in -0.5446169 0.38266695 -1.8081247 -0.36356142 1.202441 -1.9311991 -1.2004125 -0.7522756 -0.9622621 -0.38641012
side -0.67949605 -2.6178222 0.5917031 -0.23972894 0.64358824 -4.237842 -1.1816181 -1.4461638 -1.0997245 -0.38009557
March 3.3037157 0.4745387 1.0290085 2.1770215 -0.23596922 -1.7597599 -1.3625568 -3.3795648 -1.7359987 -0.2091755
That -0.11604643 -0.8040844 -2.2531292 -0.3188529 0.39807394 -0.7960052 -0.64756775 -1.1592966 -0.03886686 -1.4271574
don’t -0.8874342 -1.399415 0.19379647 -1.1621832 0.99785817 -0.6093286 -0.44584724 -1.4147019 -0.88018435 -3.6961703
Website -0.68610716 -0.3313408 -0.44627494 0.4028341 2.666934 0.8872477 -0.18843308 -3.618342 -4.0260406 -0.068140954
title -1.3260616 0.1668622 -0.12439125 1.1807727 0.9334887 -2.839299 0.08615139 -2.0981543 1.1969558 -2.5159216
Save 2.383784 -1.0524353 -1.8146803 -0.0072944798 2.2320836 0.1361332 -0.98853546 0.41395348 -0.9226612 -2.7355826
White 1.0899483 1.9278253 -1.847122 -0.58546615 3.0742724 -2.3955197 2.0361407 -1.9926566 0.05873637 -1.1873596
bad -1.5157859 -1.9357314 -0.32071376 0.47693864 2.051695 1.0053985 -1.5940456 -1.1777169 0.8870019 -3.3244996
Intuit -0.4033748 0.037199773 -2.9513595 1.5138863 2.440104 -1.7099231 -2.343759 -3.2376997 -0.118571594 2.32782
include -0.80111974 -2.0600276 2.0940616 0.883159 1.0527438 -0.9558021 -0.6850992 -2.4358728 -0.392024 -0.7407864
cases -1.8567712 -2.4057877 1.7234621 -0.21340439 2.4140553 -1.1518558 -1.0833338 -1.74692 1.819121 -1.4451518
sure -1.0271232 -1.2763692 -0.74147815 -0.7910265 1.5945371 -0.47070956 -0.26932892 -0.76370096 -0.42007306 -2.9911313
often -1.8181136 -1.5809709 1.0826716 -0.08750338 1.386209 -0.4897076 -0.869424 -2.1585522 0.6843198 -1.619921
three -0.18615147 -0.89161104 2.442526 0.15003733 0.97048753 -1.3216966 -0.3911484 -2.1410246 0.38482967 -0.76700234
THE 2.6397502 2.5419986 -0.14076406 -1.1987731 2.158911 -1.5198095 -5.010982 -2.644462 3.991844 0.4910551
always -0.66561663 -1.2056942 0.020792158 -0.48101193 1.3722373 -1.4965333 -0.2875753 -0.705915 -0.56563205 -3.493432
posts 0.7406428 -3.1897938 -0.98144114 -0.5292988 3.387409 0.94797885 1.9002563 -1.8972536 0.51800907 -1.5597234
US -0.1719214 -0.9360052 -0.6085998 0.45438272 0.4581877 -1.7160289 1.5141921 -3.2275164 0.48033565 -0.10319318
end -1.0892875 -0.7190306 1.2542048 0.78858453 1.943012 -1.1293482 0.82628155 -2.1883218 -0.2163038 -1.4735519
Do 1.3843696 -1.5145855 -1.8161541 -1.560414 1.0746871 0.6757181 0.1842677 -0.937245 -0.9815459 -2.2817388
week 0.45188317 -1.0548197 1.2817931 0.19591403 0.3440051 -1.5912625 0.44888377 -2.0325933 -0.28244165 -1.1295433
issues -0.801205 -1.8333958 0.78281426 -1.4984891 0.51005954 -1.3923132 0.86859375 -3.337188 2.1412072 -2.5253549
Out 2.9270732 1.6845942 -0.27395028 0.6631934 0.65381974 0.27328756 -2.1342442 -1.4984522 -1.8303508 -2.6618185
support -2.3579967 -1.9371828 -0.529495 0.68837315 2.0802038 -2.1712484 -1.1198081 -1.371309 0.85577315 -1.1861589
Last 2.479297 -1.987579 -1.9855576 -0.22763523 1.643201 1.6409645 -0.8052536 -1.8005154 -0.35382327 0.09257998
Music 4.497518 1.4152374 1.7386202 0.32280684 1.8253096 -1.2673522 -0.5532521 -1.8308458 -1.2912103 0.47260132
Sunbrella 0.851156 -0.2899056 -2.6340072 2.6873305 2.9445505 -1.4373301 0.7388963 -1.9564096 -1.8057315 -0.41078794
gas 1.1235671 -0.8913855 1.1153148 -2.8318334 2.893604 0.7601927 -7.665301 -0.6458879 0.6427918 -3.5469947
Cheap 4.3720765 2.1022205 0.055186845 -0.5973399 2.908022 -0.022682237 -2.4789329 -0.39854953 1.5175165 -2.6175969
injury -3.2295754 -2.5976343 2.035759 -1.3647134 3.1962292 -1.5613729 -1.5965792 -2.9257514 2.9546223 -1.242276
Green 1.0123755 3.0789514 -3.2860742 0.081537396 3.5434904 -1.206816 -0.23014365 -1.3782918 -0.31262857 -2.6205072
Finish 2.4752405 -0.4560003 -0.8805117 -0.040739786 6.4056025 1.4193165 -0.1455675 -0.74695355 0.24496697 0.23610583
Some -0.5936737 0.6328247 -0.72080195 -1.1768241 -0.03437183 0.17173365 -1.4348443 -2.257874 -0.6246783 -1.9913049
Why 1.1454693 -0.5197673 -1.1762643 -1.3706183 0.78275573 -0.26482892 -0.72341585 -0.3179598 -0.72412354 -2.001365
person -1.9103593 -1.5794511 1.432226 -0.34810257 2.014353 -0.79413724 -0.17626755 -1.9864786 -0.7248062 -1.4290069
feel -0.9200361 -2.1693733 0.4194763 -1.0388751 0.89669746 -1.714393 -1.0849141 -0.8880615 -0.5125334 -3.694548
easy -1.9292896 -0.4479423 0.29769397 0.4606986 1.7057353 -0.034150887 -2.5209742 -0.8128062 -0.42443028 -2.6641858
live 0.30870652 -0.80318266 1.0587959 -0.73193645 0.8250992 -1.907155 -0.6361475 -0.6038105 -0.45742822 -1.752075
Discount 3.8056695 -0.23312543 -2.1451263 0.53418547 3.439908 -1.1855614 0.11209114 0.029501595 -0.55226773 -2.3195374
ago 1.7174203 -1.8945767 1.0203362 -0.08118839 0.5421652 -2.5137997 1.3302789 -1.8584037 1.2493252 -1.6444607
high -1.1125174 -0.38120914 1.009884 -0.24615088 0.34251007 -2.6509197 -2.4677117 -1.3133054 -0.43659008 -1.2679132
Most 0.93603647 -0.012868204 -1.8356493 0.6230033 0.19796512 -2.1606297 -0.9696209 -2.150695 -2.3946254 0.09758307
etc -0.7973415 -1.3570904 1.7903541 0.35020468 0.82785994 -0.47603053 -0.791133 -2.9699357 1.9092427 -0.48772725
Outdoor_Patio 3.8021405 0.1057362 -3.198507 -2.3663037 3.6734912 -1.329361 1.3944209 -1.5848379 -2.563388 -1.6887504
Online 2.8964834 0.11038784 -3.0224037 2.532175 2.7185483 0.12169863 -0.2819514 -1.7321436 -0.747518 -0.9522247
start -1.3178973 -1.2130033 0.6433145 -0.5330424 1.773923 -1.2039018 1.2054003 -2.0876758 -0.7086185 -2.250631
Love 1.762194 0.13586976 -2.3367448 -1.0201563 0.6169985 -0.12665507 -0.5559055 -0.93685746 0.12174319 -2.2600715
customer -3.5935798 -1.5814811 -0.9514775 0.6630029 0.9518094 -3.8844185 -0.5419399 -3.2430732 1.1392584 -2.4322858
lawyer -3.1047645 -2.681389 0.9049359 -0.47637329 3.037292 -0.39351237 -0.9023404 -2.0779848 0.89728117 -2.330366
sites -0.82503444 -2.6770434 0.25767207 0.96111053 0.76160043 -1.428934 -0.23724505 -2.2651823 2.4176195 -1.9978099
Leave_Reply 2.5015001 -1.1904408 -2.4186125 0.25795993 3.1574013 -0.2702204 0.26838082 -1.5217085 1.693057 -0.30106035
check -0.8769639 0.4663912 -0.05719935 1.2163274 1.1021919 -0.35199505 -1.2493314 -1.7498434 1.3790761 -2.465641
From 1.6490498 0.83148146 -1.5952703 -0.6201864 -1.1321799 -0.96637684 -0.21853295 -4.3081126 -0.860491 -0.60243547
bit -1.4316463 -0.89226824 -0.83623284 -0.27116492 -0.07358779 -1.4320302 -1.974024 -1.595184 -0.5704328 -2.639367
Trailer 3.1022334 1.4079418 -3.0413327 0.2963765 1.8740274 -2.4400003 -1.6809285 -4.2153053 -3.7463179 2.034478
Panda -0.899671 -3.2593262 -1.7346048 1.6252835 0.65126014 -0.6197645 0.6412153 -3.0205133 1.3695083 -3.7792325
See 2.1144273 -0.5823621 -1.079229 0.572199 0.03226818 1.2616228 0.10273301 -2.4705575 -0.7990679 -2.6210558
process -1.6308913 -1.8196813 1.5636595 -0.5122748 1.3577408 -0.50564027 -0.912594 -2.2190053 0.33090997 -1.5861386
Blog 1.7201129 -0.49741974 -0.5674217 1.3800509 2.187501 3.7916396 -0.9148911 -3.293861 0.048035275 -3.5604246
Time 2.7106955 0.9806819 -0.5261146 0.09869218 -0.6376758 -1.0037001 -1.8607258 -2.5039918 -3.1858616 -1.7101165
below 0.015682584 -2.165604 -0.5226802 0.20542565 2.4789853 2.0928457 0.12762913 -2.349829 0.30622566 0.18961486
anything -1.4687532 0.7163841 0.8675388 -0.74892336 3.291337 -0.09178555 -0.49348512 -0.69432133 -0.38354862 -3.9011452
makes -1.3728106 -1.3438221 0.6304081 -0.29435018 0.5890527 -0.13319832 -2.560696 -1.5333139 -0.6459908 -2.3776505
compare_similar 3.6445467 0.025987778 -3.1587737 -0.9612865 3.4447513 -0.07946056 -1.3728445 -0.4001849 -3.0950806 -1.3556961
product_features 3.2215004 0.4378753 -3.3104296 -0.82987165 3.5034661 -0.22077368 -1.4430231 -0.5959544 -3.121806 -1.0933572
getting -0.5987927 -0.29607272 1.1046668 -1.0263503 1.3284222 -1.4015135 0.02348392 -1.4063628 0.009579781 -2.5588171
trends_find 2.3960757 0.8739293 -0.7277441 -0.9894486 2.4562612 0.549661 -0.54053926 -1.6234772 -4.3089604 -2.4630332
products_see 2.5079517 0.903657 -2.0426755 -0.9790846 2.7996113 -0.40463722 -1.2616544 -0.9081029 -2.894981 -1.2749321
Everything_need 2.1154406 -0.64479864 -2.2796128 -0.5570864 2.8419657 0.23529233 -0.44173673 -0.024539663 -2.8474886 -3.130963
Woot -1.615281 0.6623658 0.8473209 1.0302289 2.3022292 2.1543958 -0.026524723 -4.3556194 -0.65697587 -3.0405107
reviews_price 2.4032032 0.67581016 -1.4907974 -1.1834356 2.6654677 0.019398022 -0.9453268 -1.1679776 -3.7390914 -1.879979
Jennifer -2.459404 -1.3036075 -3.4679794 0.6690585 5.702914 -2.2022846 -2.673001 -3.8383265 2.7948065 1.7541202
state -0.74622136 -2.4457593 1.189785 -1.072555 1.3515263 -2.825994 0.26581037 -2.1457217 0.91077 -0.5416535
Brittany 2.7708888 2.0832987 -3.9366024 -4.7468433 1.9697368 -0.56766546 -0.7275599 -5.3761673 2.0760596 -2.942801
At 0.9885195 0.34488547 -0.61642176 0.09734831 0.30726027 -0.027055716 -0.24874713 -1.6182692 -0.60954374 -1.0436597
Read 1.6586357 0.32059506 -1.1509758 0.5976774 0.6222782 0.28518698 -0.97844595 -0.9795652 -0.8436445 -1.526148
experience -1.5338199 -1.7155125 0.19992615 0.28829387 1.185358 -0.39911002 0.43669096 -2.6889727 1.0315648 -2.0035002
tables -0.07095376 -1.1959465 1.4066739 -5.593182 3.1638942 -6.2678084 -3.859476 -3.143392 -1.2453922 0.77116925
Are 1.7179615 -0.055653922 -0.4768271 -1.2788424 2.0548794 -0.8050003 0.36896893 0.2824389 0.53943366 -3.166728
Feb 3.5250185 -1.3499664 -0.23837323 2.0432794 1.7721833 -1.4491217 0.9127594 -1.9940372 1.0011591 0.040659633
please -1.8500154 0.7945242 0.080394186 0.5912751 2.5041757 -1.2381274 2.0800688 -3.3710213 0.383854 -3.1430209
must -1.1195282 -2.3526464 1.49627 -0.46396214 2.454285 -0.7345174 -0.01507427 -1.0838414 -0.056838613 -2.2549622
already -1.3033967 0.03598527 0.23962595 0.09501703 1.5277677 -1.7465549 0.23217465 -1.537969 1.0410882 -2.655111
point -0.43884644 -2.0534208 -0.10525584 -0.35769507 0.8451066 -0.9767742 0.63190085 -1.7953261 -0.75571454 -3.3715925
email 0.20455237 -1.9906013 -0.45289996 -0.8692878 3.4421291 -0.6565099 2.8994584 -1.443137 -1.1734807 -1.8948349
due -2.306327 0.57678276 2.4298217 0.32368046 1.5072093 -0.051285032 -2.8420513 -3.0237296 0.113933444 -1.6846907
industry -1.4267366 -1.8136472 0.7663517 -1.4115088 -0.50220186 -1.2426238 -0.6811544 -3.3047078 -0.11399861 -2.215965
cover 0.510567 -0.5961653 2.8794947 -0.6136255 0.70444745 -1.8144388 -2.0824971 -1.6574761 -1.9380077 -0.24823692
away -1.3995769 -1.3741099 0.40961066 1.0772239 1.2412332 -0.51212126 -1.3790437 -1.5552976 0.8894393 -1.6088552
company -0.48364565 -2.676619 1.7822989 -0.5156367 1.4577038 -1.4494783 -0.24703346 -1.1902438 -0.18656678 -1.8628235
Christina 0.53282666 0.91503364 -0.7652657 -2.239725 3.9840722 -1.721752 -4.5949426 -4.522432 -6.0262413 1.1136302
create -1.065836 -2.0682347 -0.1919352 -1.7673956 0.6741459 -1.8796899 -0.70686334 -1.2112683 -1.7441069 -1.9311396
system 1.1420856 -1.5024062 1.8071828 -0.24537714 0.8027301 -1.9475567 0.1954634 -1.3112316 1.5359529 -2.5996325
Spotify 0.44519496 -0.5449248 0.5324366 -0.35657465 -0.24577181 -0.2401075 -0.28220433 -2.544989 2.034984 -3.6306121
State 1.8116724 -1.9438188 1.4558214 1.8766083 2.5162926 -2.1974535 -2.7927768 -1.5479841 1.1882157 2.475281
aids 0.50375164 -3.2742991 2.012764 -1.4530268 3.010194 -1.4858755 0.38977268 -1.2948229 2.512857 -1.5364294
found -0.67597914 -0.5790942 0.73090935 -0.88080084 0.8924161 -2.8018322 0.048056945 -1.6574621 -0.2749321 -0.93491566
Pedestal 4.2931266 3.575808 -0.3009202 -1.50686 4.876867 -3.088497 -1.2962551 -0.66208124 0.68186855 -1.8935773
This_store 3.8960986 1.4927354 -2.8355734 -0.40659133 3.9794118 0.11590689 -1.4981377 -1.8840307 -0.65448815 1.522288
reviews 0.93997806 -1.4485145 -0.8012501 1.8894236 1.1254865 -0.6622586 -0.34796926 -0.7786545 0.44194582 -2.844679
Kindle 2.5245225 -0.27598864 -0.75908977 0.7949286 0.44197676 0.40104148 -0.84832805 -1.3403698 -2.673233 -2.2202258
steel 1.7340581 -2.0488646 3.599403 -1.0244424 0.97107583 -0.17999758 -1.3491696 -6.6982565 -2.1423452 1.8011101
making -1.8914151 -1.8917207 0.3278243 0.29122502 1.4040252 0.0077724005 -0.8258836 -2.192285 0.9823647 -1.8789521
yet -0.6303629 -2.2129803 -1.8018427 -0.034899775 0.25954825 -1.0170282 -0.7987081 -1.5532086 -1.8681949 -2.6418958
sales -0.66827154 -0.48852462 0.24974094 -0.025963845 0.36089727 -2.214929 -0.944801 -1.0093937 -1.5846826 -2.1428208
Apps 3.9662168 1.2590032 3.2914336 0.67218435 1.9766153 0.46039706 -2.054319 -2.7607105 0.614269 -1.452025
name -0.9967488 -1.2998102 1.1745452 1.240212 2.1711047 -0.11892219 0.27128172 -2.1251738 -2.5067704 -1.7332047
personal -2.524528 -0.054894626 1.2095355 -1.9445435 0.8755237 -0.7887861 -0.040019926 -5.327127 1.7291937 -1.4649432
law -2.3702593 -1.6168684 2.076283 0.537857 2.2896044 -0.30609062 0.05201548 -3.0359843 -0.17498364 -1.7416081
Part 1.2329575 -1.285198 -0.26304868 1.1990933 1.9811649 0.44514695 0.9431067 -2.6771524 -2.2392762 0.8790193
She 0.035236806 0.11406973 -0.39649633 -0.80206114 0.96687835 -0.91387844 -0.47633195 -0.81777525 -0.48303363 -1.1712046
description 1.2883353 0.04250053 -0.93126136 0.04167776 2.6990469 -0.37048182 -0.18187203 0.5767372 -0.06417336 -2.3134272
Not 0.22118814 -0.6360335 -0.81655 -0.105777085 2.0765033 1.39309 -1.977013 -0.21431883 0.20064335 -1.048711
past -1.01565 0.24597138 -0.1018429 0.57657784 0.44964218 -0.64725614 -0.44539374 -2.4856188 0.4069981 -1.3683499
Health_Insurance 1.8557875 0.2523706 2.2855778 -1.3421477 2.5212724 -2.8631663 -2.7852747 -2.312786 5.538815 -3.8011284
me -0.19742423 -0.68059456 -0.15889984 -1.3776271 1.4362173 -0.30864406 0.28258938 -0.9451014 -0.80314755 -2.7894518
Here 2.184733 0.63938856 -1.0223794 -1.3521546 1.6904138 -1.6284112 -1.1173662 0.6120735 -1.4688338 -3.04473
believe -0.64845455 -0.75696266 0.35476616 -1.9315517 1.2748059 -1.1109548 -0.7593216 -0.79330426 -0.08853686 -3.355447
Authentication 0.4830038 -1.3221259 1.0118599 0.3312358 4.015645 3.1626997 -4.158961 -3.3480744 -3.7884085 0.06486222
users -1.1562073 -1.4947937 0.17068362 -0.9199653 0.3068625 -0.37602592 -1.7207699 -1.9465073 1.2728664 -3.49512
seconds 1.7815899 -0.33747068 1.4258517 3.2144923 1.5184793 -3.09927 -1.7191143 -1.7891527 1.1577593 0.7231846
Fabric 1.1628324 1.6151602 -5.1919274 1.0030892 4.6368866 -2.4393995 1.6407998 -2.7218866 0.1520573 -2.228757
body -0.39354736 -0.86232823 2.957836 -1.958299 0.7944314 -0.7385355 -1.367493 -2.4328887 -0.71809417 -1.0243249
injuries -3.1231127 -1.3611763 2.4882925 -1.3386794 2.356887 -0.91215926 -1.5322695 -3.2945411 1.8666015 -1.5184879
House 1.4283202 0.60997885 0.20023672 0.500585 2.0667825 -3.8435152 0.9977427 -1.5647638 0.8263079 0.19173646
Name_Email -2.4841828 -0.5638659 -0.11973554 -0.69739574 3.3084824 -1.3596809 0.4768681 -4.345946 -3.535439 -1.4736958
possible -1.5008894 -2.371401 0.52046365 -0.6806874 1.759759 -0.32816476 -1.0122641 -1.3031121 1.4086283 -3.3322716
within -1.9588677 -0.3151687 0.23424168 -0.92406493 1.1423984 -1.347134 -2.5428545 -1.2314309 0.8198856 -0.9241496
less -1.3691463 -1.5320858 0.99417776 0.4994795 1.5120282 -2.4227955 -1.7216173 -0.5853278 0.35060108 -2.327051
example -0.92734766 -0.83999044 0.036701206 -0.18268394 0.5484536 0.27743405 -0.41116497 -2.416911 0.5219148 -1.4850905
Mesothelioma 1.4974552 -0.98081857 2.7247684 1.7499473 1.573967 -0.10186561 -2.3697011 -1.6283035 1.104286 0.3011162
Coleman 3.949441 0.23794024 0.72393405 1.3460473 5.332984 0.19905317 -1.729883 0.4849453 -0.74327636 -3.1029859
play -1.6341472 0.5191818 0.4785979 -0.13090272 0.34006724 0.7786087 -2.4201884 -2.7732332 -0.3103062 -3.4467444
type -1.8279624 -1.0384511 1.4529743 -1.5033585 2.3629878 -0.9094715 -1.8542374 -1.35066 1.8408939 -1.5531785
Us 1.8776131 0.5245719 -2.8709354 -0.6213258 1.0088491 2.9529722 -0.040314864 -5.0153975 -0.036442757 -3.39001
keep -0.7930329 -0.78524417 1.4499072 -0.4143585 0.48313665 -0.97543746 -0.8382993 -2.0827878 0.3416184 -2.5712671
Chrome 3.053166 0.39261827 0.8095007 0.8201758 5.7643976 0.99359256 1.7258284 -2.536057 3.0830557 -2.105929
pay 0.07947345 -1.1060895 3.4512618 -2.7338607 1.2370408 -1.3299643 -1.6093695 -1.4386514 -0.38335 -3.5809152
January 2.5516422 0.6548381 -0.1277646 1.9030775 1.3143703 -2.4336524 0.4755888 -4.1603928 2.5241084 0.5002643
old 0.13194355 -0.13317873 0.2701069 0.043171294 1.2423855 -0.97915035 0.21531181 -0.99505913 0.6208642 -1.9578975
America 0.4420813 1.4297572 -3.000248 2.75204 3.0549123 -0.5376452 1.9594827 -4.6260962 1.8928947 -1.3017011
Check 2.4045942 -0.37988654 -1.6470133 2.385689 -0.2316147 0.3199662 -0.3003922 -2.5656686 -0.13917303 -3.3824933
quite -1.5738713 -2.5990734 -0.38005647 1.556391 1.2034819 -0.9638313 -1.8371247 -1.251079 -0.5757433 -2.5872467
community -1.2478123 -0.06925416 -0.86463004 -0.77331597 0.29816407 -1.2533321 -0.006861055 -2.6503289 -0.065651804 -0.9864652
available -0.14501895 -1.0406249 2.1223826 0.6924859 1.0502528 -0.3016274 -0.42714775 -1.6409076 -0.76966965 -2.6064646
Reviews 1.4960839 1.5684282 -0.23272277 -2.5627525 1.4004081 -0.25423387 -0.038209785 -2.448659 0.76442635 0.24048533
disease -1.0776945 -0.2525801 2.9788036 -2.3366013 3.2903392 -0.9739348 -2.8410819 -1.2952517 1.5377867 -0.67560387
Welcome 1.4878018 1.9323452 -1.9966959 -0.8867194 0.23724362 -2.2789204 -2.0321062 -1.236567 -0.3751131 -1.4138908
book -0.19932112 -0.3204001 0.46887246 0.0844267 0.20926926 -0.6506257 0.22589356 -2.2061415 -0.55126864 -2.9055996
advice -2.42638 -3.5205128 -0.6692756 -1.2560449 1.7647525 -0.56963915 -2.1133008 -1.6907042 0.8067479 -1.9843402
future -0.85608226 -1.5392036 1.2801181 -0.76306903 0.7861533 -2.8608572 0.13968264 -1.9357905 -0.030195627 -2.0704055
list -1.4586313 -0.48283213 0.6794702 0.38382176 2.1162522 -0.79401505 1.1303451 -2.3474636 -1.6321292 -1.7834688
Be 0.28304037 0.36243013 -2.2652893 0.14854437 2.1959825 0.35214174 1.3359405 -2.4952664 0.64908963 -0.13030687
tabletop_gas 1.727631 1.0467231 4.3136067 0.42667845 -0.43464154 -0.90000844 -4.2412844 -6.527198 -1.0745505 -4.1050816
area -0.7605366 -0.44662982 1.1927731 -0.3317501 1.0342833 -1.7673222 0.18339352 -1.9789174 -0.6664351 -1.3476048
hard -1.8021834 -0.81656975 0.49878663 0.16059923 1.0803287 -1.5981648 -0.9079834 -1.62435 -0.91523504 -3.166909
small -1.8171511 -1.2870165 0.5170927 -1.8225796 0.8756082 -0.79648244 -2.4006808 -1.6073333 -0.00258116 -0.8220195
Women 2.133494 0.9783177 1.7080938 -0.45681167 2.8712144 -2.3420024 2.8301628 -2.6766717 1.8674998 -3.2153034
thought -1.1897455 -0.6821271 -0.54868275 -0.92078626 -0.13465302 -1.1373838 -2.5650873 -1.6623927 0.63475436 -2.743378
broil_portable 3.2235246 -0.011593242 3.7434602 -0.7623546 -0.7059331 -2.0629513 -5.9260573 -5.527833 0.63369286 -2.9134407
too -1.0839628 -0.6650111 0.82618165 0.67386687 1.1541952 -0.33430678 -0.1732698 -1.9384708 -0.90198386 -3.0691612
via 1.0717616 -1.238121 -1.3767327 -0.6569232 0.48356852 -2.1646216 2.2034981 -2.0776165 0.07072975 -2.5613198
cast 1.4858156 0.7833442 2.8340366 3.7377505 5.121312 -0.022608057 -5.933129 -1.4594176 -2.5554328 -1.3165132
Design 3.1520813 -2.8162932 -3.1271362 -1.5919039 3.0443716 1.8096557 -1.4584162 -2.28035 0.9523167 1.5584109
win -1.0658252 -0.95321107 0.7191556 1.0642595 2.6406155 -3.1170168 -0.39938974 -0.3809904 1.1571742 -1.9550956
least -0.057164315 -0.817052 0.6814533 0.48725194 0.84041345 -2.1950493 0.22740752 -1.3251665 0.74321026 -2.1854744
Protective_Covers 5.1433916 -1.4032592 -0.93287677 0.49840188 2.8576593 -0.54982424 0.7194764 -1.6539178 -2.5849922 -2.1351807
never -1.1972063 0.9727544 0.6864638 -0.72421086 1.6899947 -1.368247 -0.36639783 -1.3282865 -0.0692531 -3.6237497
Because 0.46736756 -0.65461946 -1.3217019 -0.5213656 2.0474203 -0.29298082 -0.90958065 0.35357568 0.30007058 -2.11737
medical -0.68908256 -2.6027365 3.1137056 -0.30279204 2.7685814 -0.94699883 -1.3359866 -0.9011806 1.1828517 -2.1759048
Thanks 0.3251913 -0.63160414 -0.56730694 -0.15696658 1.1952182 0.0385273 0.9063801 -1.7871726 -0.6414475 -1.1679873
Folding 2.3899574 -0.79720163 -4.9204206 -1.7618138 4.8014417 -2.7423532 -0.79601043 -1.065773 -1.8286898 1.0173937
following -0.88218653 -1.1274023 0.21781774 -1.7521294 0.8905142 -3.9805155 0.54817855 -2.0455167 0.56311834 -1.1470215
Posted 3.0108044 -1.2972374 -1.3551439 -3.7111266 2.475803 -1.136938 1.5155271 -2.0936823 1.5733037 0.43946967
published -1.778496 -1.9242129 -0.060883474 1.3360868 2.5839655 -1.1025552 1.1846688 -4.0552073 -2.6333756 -0.22639477
mesothelioma -1.6863384 -1.1486104 3.072586 -0.9729846 3.1290338 -1.4386432 -3.0997133 -1.0697541 1.3572565 -1.3050101
Weber 3.643805 -0.11171719 -2.314772 -1.2028972 3.6699212 1.0291065 -1.6009971 -0.06625072 -0.31124023 -3.8661284
Best_Buy 2.8214786 1.229528 -2.7619884 0.4447496 1.573352 0.9995666 -1.5690769 -2.252022 3.1091228 -2.5620308
Its -0.30580184 -0.22712278 -0.050352737 -0.42541504 0.8232531 -0.8369881 -0.48754025 -1.0807736 -0.94851065 -1.7465572
ReplyFebruary_9th 2.0075655 -0.10338474 0.20897396 2.0441074 1.2298174 -1.1945236 0.45854938 -3.6842623 1.7290285 0.79938114
hot 2.0210524 0.6711506 0.7225886 -0.8569326 1.7258761 0.63974667 -0.12201256 -1.4635166 -2.0617104 -0.80693614
become -1.0445554 -1.7468815 1.1532192 0.2395198 0.004040169 -1.1125824 -1.7499578 -2.2198014 0.9477178 -2.235534
someone -1.1206948 -0.47817764 1.019289 -0.6164191 2.0361998 -0.4782705 0.039605755 -1.3146509 0.4976401 -3.7223015
Im -1.1920012 -0.40665463 -0.8886867 -0.6627544 1.1546354 -0.07370226 -0.24623293 -1.5519396 -0.09444885 -2.944808
outdoor_dining -0.10548642 -2.116327 0.6898755 -3.7267106 0.1958046 -1.7889067 -4.207014 -8.342181 2.5455909 1.9430559
working -0.7412725 -1.5043374 0.6361911 -0.28087145 0.7094006 -1.5670474 0.08386738 -1.7408242 -0.26143464 -2.9414983
moment -2.0647485 1.4606788 0.12629357 1.6251953 1.9824001 -0.6908642 -3.423339 -2.0654168 1.3647263 -4.5869727
Travel 3.3506835 -1.4236524 -1.7008135 -0.3382672 1.1387686 2.1331112 -0.051437758 -2.807087 -2.272203 -1.5853782
marketing -1.8773866 -2.6811538 0.93860674 -0.0937546 1.809104 -0.14472103 -0.2848043 -2.084204 -0.5698091 -2.3340514
fact -1.3081814 -0.75765795 0.28239655 0.5501552 0.89557576 -0.2625304 -0.6646849 -1.8583971 -0.12968156 -2.6373515
user -1.8068945 -1.7103449 -1.4839014 1.1402198 1.7347945 -0.47368115 0.4657198 -2.014831 0.52821314 -3.3663182
Seat 1.1060928 2.1909645 -4.6947136 0.76312274 3.7232378 -1.7280143 1.3406751 -2.3941872 1.436281 -2.8356624
you’re -0.6782041 -1.1401395 0.22244212 -0.50420094 0.8818924 -0.8198704 -0.5296028 -1.279381 -1.3129199 -4.1303725
Popular 1.3652364 0.45062858 -1.0047429 -3.0057952 0.2711939 -1.6320608 -1.4175106 -3.1513727 -1.350878 0.6961309
great_price 2.0231555 0.46423945 -1.0482626 2.0866656 2.5801694 -1.0834315 -1.0755819 -0.069919124 0.5427344 -2.2170463
Learn 2.6038394 -2.1081805 -1.2638702 -0.003531068 1.2702307 0.66110265 -1.8745015 -0.3602958 -1.0283118 -1.7685051
Blue 0.44302806 0.45119247 -3.1468034 1.691921 2.895061 -0.74494714 0.58101916 -0.9956721 -0.84432787 -2.1715224
that’s -1.6780605 -0.79161924 -0.8834809 -1.3473183 1.347523 -0.6989694 -1.6792336 -0.8243707 0.51276284 -4.2149043
friends -1.0845937 -1.1313412 -0.4253998 -1.2360045 0.97048753 -0.86421764 0.44396037 -1.9495639 -0.5539138 -3.1886554
treatment -1.4431314 -1.9871082 3.183769 -1.7187963 2.9561908 -1.9675217 -1.8343767 -1.080017 1.2589638 -1.5759176
million 0.85849744 -0.52932054 2.0470972 -0.17674159 0.77889717 -2.4614766 -0.8237779 -1.2175463 1.7890911 -1.6702898
Teak 5.047808 1.8256259 -1.0486121 3.0019624 2.5285487 -1.850366 -0.8328884 -2.9738731 -1.4407055 0.04563695
Ana 2.2222984 -1.7774204 -3.4440699 4.5772347 -0.052510425 -0.469334 -2.4121113 -6.906303 1.7472904 -2.742399
research 1.0860753 -1.1959863 1.1749067 -0.5001444 1.8568728 0.31992117 -0.0484818 -0.6497568 1.243207 -1.5808655
Promotions 4.865012 1.2188009 -2.1749513 0.08363141 2.4717042 -1.5590869 -0.3095247 -0.8617664 -0.1813622 -2.7711322
8 1.1507729 0.71626586 -1.9651868 -0.12464077 0.4888181 -2.4589384 -1.1019105 -0.90858454 1.3515303 -0.7098942
web -2.1942492 -1.8873334 0.24864793 0.3370421 0.8207299 -0.7023453 -1.6013737 -2.3134592 0.6431566 -1.6784955
15 1.4722978 -1.0308614 -0.819238 1.6242193 1.127544 -2.0351427 0.7465362 -1.9632276 1.1235837 0.29547894
special 0.3551208 -1.3701255 0.26758525 1.5419867 1.2279469 -1.872651 -1.963894 0.14799441 0.5511279 -1.850705
Joe 1.5868262 -2.012205 -1.6816521 -5.0550485 5.147002 1.2213125 -2.410749 -0.49929574 0.95339817 -1.4095645
Front_Porch 4.754374 0.25886264 -3.9254882 1.2900693 0.9054383 -1.5549905 0.96084094 -3.7011807 -0.9637297 -3.2207036
result -2.0453534 -1.9199952 1.0341806 -1.0972973 2.3525252 -1.2520854 -0.8006168 -1.7182986 0.85276794 -0.55859476
likely -1.5581306 -2.279587 0.47156283 0.19146563 1.4280428 -1.3370059 -0.8134778 -1.37024 1.0712465 -2.3221657
needs -1.6760734 -1.6477652 1.0342437 -0.124738954 1.1056106 -1.7822045 -1.3361639 -1.3363905 -0.83631265 -2.5046775
share -0.7657317 -2.1798553 0.19497772 -0.7486016 0.9596493 0.024942784 0.717565 -2.3032475 -0.627631 -3.3093681
comes -1.0744839 -1.4886391 1.2664118 -0.8283495 2.109165 -0.46445414 -0.6337846 -1.2143719 -0.120794736 -0.8653758
school 0.066778265 0.2821624 1.0976609 -0.92518556 1.7358655 -2.4998565 0.63730776 -1.2277973 0.2724625 -1.2345161
takes -0.5077315 -0.59991163 0.7534706 1.4746139 0.76680446 -1.8404257 -1.6782265 -1.0430285 0.69379705 -2.0946517
email_address -2.0613568 -2.5912402 1.0956571 0.8145977 5.2521944 -0.7109384 -0.42740917 -1.2863042 -2.8315861 -0.7508704
Kelly 1.263734 -0.5075013 -0.28482088 -0.024888046 1.5611359 -0.01915744 0.5084436 -1.1428976 -2.719331 -1.8383397
car -1.9639688 -1.3133292 1.3696144 -1.2641239 1.3159796 -0.48805726 -0.7270842 -2.5632565 0.7805444 -1.6318074
times -0.35217157 -0.7314571 1.148763 0.14495309 0.35952178 -3.0709267 -0.14658754 -1.7377913 0.8097559 -2.41475
OR 1.9777651 2.8233979 -0.44056785 -0.07530591 3.7655125 -0.9902001 -5.236967 -2.017263 3.7725239 0.6042836
Internet 0.4239086 -0.20001708 1.2240589 -0.67855215 1.7283676 1.3944029 -2.2254124 -0.8428982 -1.2799224 -0.8377195
questions -1.1364747 -3.1949549 0.3343746 0.19181265 2.2286294 -0.38398793 0.5109254 -1.3965997 -0.9794938 -3.1616921
Back 2.2162933 1.4172497 -2.1165683 1.460011 2.244934 -0.59053683 -0.6237138 -1.8966224 -1.7828419 -0.16978931
Promotion 1.657674 -3.2969944 -1.3776015 1.8452502 2.9739573 0.9567602 -0.38463748 0.23175098 -1.3511392 -2.9195306
Game 3.4123135 -0.9458248 -2.6848361 0.821993 2.0049756 -2.9162111 -1.5194336 -2.1002553 -2.2996345 1.7448757
enough -1.7788947 -1.4870089 -0.88836557 -0.027961075 1.4255859 -1.8601668 -0.8756659 -0.9529059 0.8040065 -2.8291602
whether -1.6679505 -1.9991455 0.7889144 -0.5252093 1.341061 -0.041436315 -1.3546891 -1.6631547 0.60663146 -2.5969548
tools -0.14606912 -2.4039373 1.7608781 -1.2494798 0.46783555 -1.4718381 -0.97207004 -1.3369442 -0.35444477 -2.4926455
simple -1.7986447 -1.636278 -0.37250543 -0.1637876 0.9514615 -0.094318844 -1.4251219 -1.709646 -0.23722054 -1.9532055
prices 2.4200482 0.18475044 -0.80182904 1.2441834 0.7860205 -0.34471086 -0.3493266 -0.5742743 -0.46588445 -3.6131053
I_don’t -0.8922508 -1.0207751 -0.5162509 -1.4236051 0.86606246 -0.60046977 0.05041462 -1.7939434 -0.523535 -4.2468805
technology -0.17575228 -1.8693156 1.1802485 -1.150688 -0.08386996 -1.1700757 0.019230654 -2.3951085 -0.4278235 -2.3406768
out -0.24763007 0.6235809 0.8941924 1.8134538 1.5936188 0.27453744 0.09332422 -1.7030569 -1.8498722 -2.5733163
February_10 2.9782236 -0.26887065 0.6831406 0.5950191 0.3515438 -1.0803233 1.0820342 -4.048543 1.0530525 -0.32989234
evolverfm 0.9802549 1.3528061 1.4174794 1.4848509 1.2443942 1.4369696 -1.3071028 -4.3530416 0.023576286 -0.38898993
follow -0.09579333 -2.926073 -1.6580197 0.5638074 0.61830986 -0.64195603 -0.14208291 -1.4006643 0.12584674 -2.8239522
Where 1.2045829 -0.18364675 -1.9737203 -0.04132644 2.1948218 0.56121874 -0.12863702 -0.44042817 -1.2891294 -1.6472746
Tables 2.583443 0.41268706 1.3164517 2.8105175 3.1043303 -5.300163 0.7263098 -1.9477946 2.0987012 -2.047436
visit -1.1399444 -0.4799046 0.4095281 -0.7739608 1.3337054 -0.6087174 1.1509182 -2.5180278 -0.65432745 -1.839153
means -1.0090212 -0.96577716 0.4647729 -0.80121124 1.111435 -1.1008201 -0.54199445 -1.1890582 -1.461753 -2.375146
Subscribe 0.14352247 -0.26785383 0.37744942 0.33823717 4.903466 -0.8438667 2.6956573 -2.6555815 -2.1502762 -0.039512563
Portable 2.1565094 3.5811007 -2.768751 1.7454997 4.996959 -0.34649646 -2.8911831 -2.3136268 -1.5960238 0.65257084
action -1.4225601 -1.4283708 0.030922059 -0.47136825 1.5708829 -2.4371853 -1.3979259 -0.7222256 1.6286895 -1.8779999
Friday 4.2420816 -0.08201338 0.24536863 1.1268742 0.53822696 -2.2185855 0.29533884 -1.3032944 -0.825057 -2.2587073
12 0.40300527 -0.3517008 -1.0523139 0.89195496 0.45957553 -1.9052743 -0.22612248 -1.8658193 2.6049519 -0.8377713
Resources 1.0036635 -0.39669302 0.6604005 1.415978 1.4216603 1.4834772 -1.4312232 -4.4226875 1.5194225 0.18769547
dining -0.99921274 -2.0965157 2.1783557 -4.9973903 1.8578717 -2.4410348 -2.4713845 -6.0021887 -2.0599306 1.5303706
Guy 0.58580494 0.25580978 1.7599981 2.3000221 4.757382 -3.41425 1.1533083 -0.7198716 -0.91435796 -4.322083
Garden 4.211542 1.1651247 -3.4322653 2.1384532 1.2118945 -2.3052294 -0.51745915 -2.4775321 -0.8345007 -1.9825015
Mesh 0.96360266 -1.3042012 -0.8584604 0.72439814 3.375946 4.9433846 -5.6836357 -3.0645604 0.3652629 -1.7940613
month 0.23741311 -2.152142 2.1287954 -0.6952483 0.51698095 -0.9857185 0.31467327 -2.5181172 0.6083195 -1.7934196
though -1.5755328 -0.45494613 0.7824988 -0.49977288 1.3416686 -1.2831672 -0.3319413 -1.7060753 -1.5367819 -3.2547548
real -0.8699547 -1.2829344 0.58798414 0.72049695 0.65202266 -0.6500051 -0.76436377 -1.7635435 -0.16433853 -3.0695963
film -0.97105515 0.31417844 0.037060305 -1.4941466 0.92526865 0.46834928 0.026979445 -2.369007 -0.21905343 -1.5610137
add -0.6625596 -2.3255231 -1.2273309 -0.9413042 1.3732728 -1.8281342 0.896817 -1.2460904 0.1671417 -1.619882
Guide 2.6939735 -1.4302524 -2.209392 0.34468818 -0.3824661 2.1398277 -3.1988633 -4.0576754 0.8810549 -0.4369138
months -0.45335695 -1.2550765 -0.011790119 1.1673952 0.68364197 -1.6629597 0.3090798 -2.2875862 2.0533159 -1.4261737
main -1.3175665 -0.66983634 1.5036322 -0.33359057 2.4969645 -2.1851957 1.1959835 -2.00695 -0.6667899 -0.8280888
Swing 2.9280486 -0.007217461 -4.480685 2.3053722 0.48271784 -3.1443324 -3.0569491 -2.8386433 -1.2412437 0.60552853
Chair_Set 5.8531933 -1.8273515 0.29490146 2.5587957 3.8771524 -3.1911497 -0.7447804 -0.08503847 0.63001835 -2.0634181
posted 3.1325972 -1.1168832 1.1093652 2.0276916 -0.04381628 -1.5357517 0.045134276 -2.0092185 -0.23390755 -3.2686079
popular -0.9739117 -1.1044526 0.38800195 0.95219165 0.21516302 -3.3725278 -1.3799099 -1.823845 -1.8184854 -1.4880458
team -0.7604204 -1.1622556 0.28033558 -0.7338052 0.46040034 0.41728175 -0.9410205 -2.4147675 0.32594386 -0.83281577
others -0.7340909 -1.809601 0.2990645 0.040087987 -0.144962 -1.8941693 -1.2856929 -1.6101139 0.25845337 -2.6486473
See_Lowest 5.3924265 0.85323423 -1.5350945 0.71576 2.614838 -1.6681246 -1.2169737 -0.81864 0.3966674 -3.251343
talking -0.653901 -0.32488427 0.4634707 -2.826498 1.8599072 -1.3918391 1.0088991 -1.5724401 -0.4246923 -1.7302426
Recent 1.3631065 1.5665447 0.3203358 -0.33902225 1.81084 0.79152447 -2.20979 -3.871477 -0.5015171 1.1588745
says -0.5544932 0.6159735 0.11706848 1.1112303 1.4980336 -0.17335196 -0.40940568 -1.4523295 -0.720562 -1.5703478
People 0.742997 0.58045197 0.21554336 -2.9473422 0.6674444 -2.039998 -1.0081406 -1.5389736 1.3176788 -2.8242931
9th 1.830718 2.6565049 -0.57559127 -2.449623 0.10653051 -1.7144724 -3.1968367 -4.0461235 -2.207674 -0.32727152
Special 4.240567 0.48189792 -2.7595205 1.2504023 2.0371933 -0.30333346 -1.7119308 -1.0723356 -1.0856209 -2.0918956
TO 2.174203 2.1657588 1.0651408 -1.6782123 3.9407158 -0.36769137 -4.2992926 -1.8817014 3.9998481 0.24886583
70s 1.4892735 -1.648848 -2.2835999 -0.23701665 1.2180808 3.1554165 -2.5778034 -3.4723763 2.2817523 -1.6790266
photos 0.9704047 -2.2724164 1.4698637 -2.6661637 0.85538745 -0.56294745 0.0629332 -1.2873155 0.50183284 -2.2087123
Plastic 1.7101144 2.7974362 -2.8144884 -0.7837545 4.780165 -1.4423208 0.53683037 -1.4763087 -1.694387 -2.9199774
tax -2.5164058 -2.0427668 0.25354037 -0.86600536 2.94847 -3.5007417 -2.8987262 -0.5413657 -1.895121 -1.3731419
local -1.1233462 -1.1537993 0.17887965 -0.26472253 0.5981093 -1.4240267 -0.36093718 -2.208997 -0.5940391 -0.4642196
This_Is -0.23509604 1.6965295 -2.2246938 -4.157351 2.4596655 -2.4953747 -1.9996345 -1.7207382 -3.5402117 -2.2220848
wood -0.44704792 -1.5316786 2.700012 0.22684366 1.1028918 -0.020192655 -5.331858 -5.0508947 -0.20979634 1.5276345
Dining_Set 4.542933 -0.21433128 -1.5905246 -2.3436615 3.3051088 -5.875355 -1.9381104 -1.4856755 0.30289188 0.8146515
Fire 2.3124802 1.8464035 -0.14114983 -0.7061728 2.9012144 1.6337162 -0.86651874 -0.97527254 -1.3659647 -1.3208704
ideas -1.1858265 -3.4546974 0.32294482 -0.8040457 -0.62794584 1.0339904 -1.2246234 -4.673416 0.4053794 -1.3433975
retailers -0.6970181 -2.8154695 -3.494461 2.2664664 0.2409966 -2.8174872 -1.7876581 -1.6736265 1.4951034 -3.1552665
run -0.17346244 -1.6286757 0.96013474 -0.053401656 0.78609866 -1.9362515 1.0463701 -2.1129854 0.3490734 -2.1533458
water 0.35531786 -0.17318307 2.3004398 -0.43900707 0.6357549 -1.5404159 -2.846528 -1.0768584 -0.12090909 -1.2527051
up -0.16598858 -0.647935 0.22256348 -0.51053464 0.8282329 -1.7173651 -0.62892896 -0.88442266 0.5678158 -2.7859282
fast_shipping 0.49623185 0.7791293 -2.3921378 1.1555744 3.2023754 0.10305851 -3.1879997 -0.1329771 1.7599943 -3.5631723
office -2.435791 -0.55795753 0.64550763 -1.7082173 3.4355807 -0.070964746 0.2433597 -3.026406 0.20968969 0.47836697
Canvas 4.2597427 0.6083017 -3.7032733 0.88249016 2.55424 0.103388645 0.91056794 -4.563829 -3.7280703 -0.83884346
Enjoy_Savings 3.6827934 -0.5913707 -2.2580209 -0.5660324 3.0778217 -1.0277086 -0.09342794 -0.28340116 -0.74497986 -0.6101232
Lee 2.0398066 2.9915173 -2.8918545 -3.5591846 2.2733552 0.12514985 0.9446458 -4.8796077 0.5756831 -3.1224723
Buy_Cheap 2.344808 0.7470014 -2.5903144 0.23873733 1.6854068 1.0642908 -1.9236606 -1.1588243 0.27762678 -0.53580695
collection -1.9186851 -1.0397412 1.4021078 -1.0272173 0.28268498 -1.6050774 -2.0624352 -2.8427303 -1.1654407 -0.013511017
Use 0.37719005 -1.1631955 -1.2121155 -0.3855424 1.113205 1.9582562 -1.059156 -2.863976 0.24285829 0.7167199
else -0.59265035 0.50733376 2.3801143 -0.8387162 3.3732874 0.16495137 0.2577556 -1.3913764 -0.69255984 -4.5938115
Daniel 2.8072524 0.7192745 -3.8451962 -4.9087687 0.672771 -0.33176798 0.3356374 -5.035273 1.4190032 -1.877925
devices 0.35869318 -0.46207955 1.9826697 2.3776786 -0.3336037 -0.6980193 -4.167818 -2.3854046 -0.8789919 -4.6484513
drug 0.62480026 -2.5431633 5.2202864 -1.3657438 3.7402968 -2.545795 -0.19596781 -1.6858773 -0.07489941 -1.4657552
started 0.1733657 -0.95147866 0.54439265 0.28094524 -0.003131606 -0.6938992 0.26384717 -2.2518086 0.77919465 -2.680275
First 1.7624755 1.6470126 0.21966891 -0.77113366 1.2392043 -2.6796145 -1.2492505 -0.8002343 0.86650014 -0.061210472
view -0.55453026 -1.9673003 -0.5441546 0.24117807 1.7781848 -0.83761245 1.9334115 -2.1569693 -0.6229469 -2.9568708
either -2.8413978 -0.5889831 -0.18489467 0.62315196 2.096534 -2.5801356 -1.4837018 -1.3852446 -1.1280955 -2.0466437
Women_Health -1.8633875 1.1640608 0.25161183 2.2548723 1.8519608 -4.2105174 1.2728248 -7.049572 -3.5479238 -4.2700615
doesn’t -1.860916 -0.02317274 0.65170133 -0.9998865 1.2999418 -0.5394914 -0.98173434 -1.8236653 0.010321832 -3.6148245
best_place 3.3291247 -0.7077114 -0.89763135 0.9201443 2.6247163 -0.0910803 0.27889037 -0.5990831 -2.7146037 -2.1004379
taking -1.0326508 -1.6888001 0.6899217 -1.3858066 1.7707887 -1.5940237 -0.5058911 -0.7387753 0.11845246 -1.4330555
natural -0.7674551 -0.95405585 1.7030002 -2.2518263 1.7589713 0.9763449 -4.3762064 -0.7412807 -1.259803 -2.5456707
American 1.4285929 0.41727528 0.57214826 -0.06207002 2.4009964 -1.4122094 -1.6888634 0.8453003 0.3710254 -2.0008912
far -1.1691298 -0.7486817 0.14711303 -0.48499307 0.9603423 -0.9909888 -0.9693116 -1.3144329 0.69291323 -2.9318893
Best_Price 2.5530446 0.9782557 -1.4718992 0.6460367 2.6058674 -0.8099722 -0.022159703 -1.1882455 -0.0360064 -1.7544411
bbq_island 0.6571011 -2.6242425 3.4636502 2.727596 2.6885953 -1.9800949 -7.8276997 -4.612061 -0.9717278 1.1346244
Good 2.379175 -1.9194728 -0.02502894 1.9836186 2.020838 1.1261297 -0.79195154 -0.56556255 0.16677332 -1.3743366
Can_You 3.6472087 0.29965174 1.1987894 -0.78613645 1.7351131 0.69444114 -0.66673374 -2.8500454 2.010043 -0.36879027
propane_grill 5.3603973 0.5037004 4.697701 1.4895381 3.3988132 -2.9418793 -3.4233255 -4.324539 -4.0470934 0.3785588
25 0.7003433 1.521071 0.20726511 2.634084 1.5331883 -3.2397408 -1.3252803 -0.9674818 0.03205273 -0.63018197
seen -0.85796773 0.16055726 -0.3561857 -1.0901302 0.8894236 -1.1803339 1.0572762 -2.458347 0.6386983 -3.9713485
Articles 1.5759678 0.5257232 -1.0663307 -0.5262556 2.6841712 1.8784013 0.11741931 -1.6632628 0.29202175 -1.015291
together -1.105346 -0.6779845 1.0523742 -0.08225004 0.75400424 -0.5392038 -1.5215439 -1.5833844 -0.7578695 -2.504567
Featured 1.826956 -1.387819 -2.2104766 1.0969318 3.975629 0.97732544 -0.10535628 -0.9964742 1.721344 -2.080937
Amazon 1.0354042 -0.7135597 -0.49857488 1.2422317 0.5463495 1.1037049 -2.795605 -0.7757391 1.1258981 -2.4010096
Dan 1.5010453 1.2349701 -3.190147 -1.4147911 1.89972 0.61446124 2.1533713 -3.8817847 0.40794057 -2.1507635
Follow 0.6821445 -0.18156905 -3.1665857 -1.0423627 -0.32802075 0.066515796 0.08418544 -3.1312404 -0.44929007 -2.1053207
types -1.2933861 -1.8266199 3.5526547 -1.4833249 2.4075596 0.058309905 -3.1989079 -1.780089 0.33124825 -0.97837
While 0.239387 -1.293253 -0.13890472 -1.0801183 1.79776 -0.5105193 -1.1054523 0.12762205 -0.3750308 -0.8124707
cells -1.4397379 0.013432302 2.542982 -1.6167827 2.4169223 -1.737342 -2.9470656 -1.3746802 1.1475493 -0.44200602
interesting -0.5988957 -2.8333874 -0.25230005 -1.2688355 0.7846994 -0.44853398 -0.15749978 -1.5893078 0.25579086 -3.4084601
attorney -2.381491 -2.7671263 1.489871 0.58914626 3.4403977 -0.07270231 -0.331678 -1.7814865 1.121206 -1.6641667
night 0.09330578 0.039638598 -0.15885879 0.5041385 0.21406235 -1.6378814 0.87551445 -2.7698617 -0.88554806 -0.59937036
based -1.1381533 -3.2811852 1.4107329 0.16238686 2.148895 -0.33979565 0.17664392 -2.353277 0.9114391 -0.14235872
Price_Here 5.7441535 0.99635285 -1.757793 0.31227067 3.0191884 -2.684481 -0.6000467 -0.33629704 0.9942524 -4.157376
100 -0.9548192 1.9946405 -0.061998054 0.5419898 2.4508157 -1.7653819 -0.99610627 -0.54229474 -0.94108164 -2.2060711
Econsultancy -1.0619969 -1.838204 -1.5961002 -0.6193832 1.5505552 2.0205817 0.49279326 -5.5928392 0.60573405 -0.012408429
Review 3.8416123 0.8932498 -1.6318227 -0.8043068 0.5815908 2.5833592 -3.6271265 -2.8209438 -0.19906731 -2.1787028
everything -0.13923998 -0.49007988 1.1249694 0.75477195 2.336244 -0.20269917 -0.24145575 -0.50441056 -0.042315435 -3.6830862
behind -1.690942 -1.3902587 -0.9004138 0.5625735 1.2748516 0.08197106 -0.33362636 -2.0200996 -0.25024673 -1.2268254
living -1.606786 -0.29419032 2.8433452 -1.4953413 1.7702798 -1.0649586 -3.5572402 -3.7100956 -0.28201053 1.0491247
wanted -0.04966558 -0.3061769 0.97381145 -1.2812114 1.8868786 -1.3712815 0.54952484 -0.7836323 -1.2226992 -3.871267
Stackable 0.6700422 1.1691747 -1.8921933 1.30711 5.9119787 -0.49776977 1.9997982 -2.6958225 -2.564845 -2.6854935
Gathering_Table 1.573084 1.9754455 -1.7741205 0.33178774 6.500922 -1.3729527 -2.9066195 0.8885928 0.6588635 -2.5693288
Classic 3.5945098 -1.5667197 -2.2165785 1.7975451 2.5702665 0.73810095 -1.0316547 -2.642662 -2.8923178 0.6769945
UK 0.7426342 0.64828223 1.2356365 0.8043794 -0.36860472 -0.34644 -1.3824977 -2.2014594 0.4419117 -1.4984697
gas_grillchar 3.2785337 -0.58426327 2.8144522 -1.1651239 -0.5272322 -1.6137929 -6.6883426 -4.29755 1.946246 -4.03225
AND 2.7139907 1.7119871 0.6051963 -0.26755336 0.45642728 -2.5708663 -2.461114 -3.9546955 3.5271082 0.5553264
queries 2.19015 -1.7093377 1.6433965 2.6760886 2.20907 -4.2636495 -3.5476904 -1.9294554 1.7488643 1.7736888
Find 1.4676348 0.521523 -2.7419212 -0.009774312 1.1736451 0.63285774 -0.49185905 -1.3560164 -0.4375696 -2.3331633
February_9 1.5402229 -0.5295566 0.36311713 2.2036145 1.2765266 -0.9749856 0.5706014 -3.9353158 1.6152552 0.5864628
food -0.55997586 -0.7365594 0.26538634 -2.342924 0.67670065 0.22060697 -1.314542 -1.8350034 -2.0422754 -1.9033065
Evolverfm 1.4083519 0.8265036 0.9492297 0.5855467 0.3958995 0.17091192 -0.035080336 -2.1057286 -0.605623 -1.4042671
fight -0.5068763 -0.16650201 1.3009129 2.1980646 0.57128316 -1.0231419 -0.34352943 -2.542971 0.43131834 -1.7733238
currently 1.2745019 -0.2474989 -0.59995157 -0.552755 0.5439802 -0.8351623 -0.82861304 -0.4740687 -0.13175964 -3.653686
However -1.0230774 -1.9869574 0.4355599 0.20917194 1.6572533 -0.43090343 -0.28741696 -1.3162204 0.18403444 -1.7853888
financial -2.089874 -4.018337 -0.19871102 -1.499418 2.3507113 -1.3215402 -3.0770342 -1.351156 -0.09913553 -0.7664282
Silver 3.3108754 -1.954073 -3.4590154 -1.7716589 3.7520187 0.7294605 -1.9997522 -0.646663 2.0212102 -0.580278
several -1.4020458 0.14806524 2.050182 -0.21485631 1.3824353 -0.97920483 -1.0804396 -2.391692 1.1888616 -1.0775741
WordPress -0.4474519 1.483513 -0.47815403 -1.2283707 -1.417127 -3.1126587 -1.4529717 -5.6309733 -0.06456474 -1.8009206
event -0.8150289 -1.7325758 0.4434555 -0.5598348 0.7889983 -2.5584364 0.2222441 -2.163908 0.7222404 -0.30199373
Frame 1.2299303 -1.8718613 -4.1798058 3.0017214 2.5826046 -2.6097362 -2.42537 -0.95615077 -0.6051019 0.13111609
do -0.60596186 -0.73751885 0.17021702 -0.5098991 1.3828677 0.05746144 -1.4874364 -0.88371754 0.5843048 -4.17869
strong -2.912651 -1.3938223 0.20129953 0.26205635 1.699848 -0.28589216 -1.2558002 -2.3720376 -0.48707286 -2.0492156
All_Rights 4.0472913 -3.675652 -0.92558366 2.8396668 1.5972627 -0.095464244 0.5881316 -4.3532615 1.018535 -1.3296225
short -1.2195066 -1.4151492 0.13617742 -0.26150438 1.870119 -1.9520795 -0.7213972 -0.38668478 -0.18887033 -1.9324012
Tags 2.6696346 -2.1176474 1.1069704 -2.422353 0.9532016 0.48778814 -0.6026855 -2.0331187 1.8070267 -0.64861065
features 0.093037546 -1.1768856 0.93273383 0.0013601359 0.33743027 -1.3806566 -1.7514662 -1.2680302 -1.3979676 0.01820302
ever -0.6737938 -0.3732119 0.6831191 -1.2127296 0.73944676 -0.9193059 -0.28070554 -1.7581885 0.8673299 -3.1924965
Print 3.2849243 1.7720557 -3.4609222 0.9159579 1.38347 -0.9112129 0.772502 -4.9633346 -1.0342481 0.15290275
Food 2.764984 0.8931527 -3.7230341 -3.532272 1.6167293 0.29176375 -2.0892968 -2.6193686 -0.14604956 0.26477012
Reserved 4.582883 -2.7085772 0.22711937 2.8096824 1.9327338 -1.314569 0.24125615 -3.8136158 1.9083649 -0.43575042
Bermuda 0.97802746 2.2191339 -2.1840837 -0.3717669 0.6684651 0.39753222 0.25480336 -3.6803615 0.81909496 -1.7471157
went -0.2026781 -0.2392517 0.03997089 0.16426744 1.0909754 -1.7500988 -0.24965952 -0.7545553 -0.5216675 -2.2222207
Our 0.9365427 0.7752041 0.2673139 0.112594046 2.2731023 1.7104553 0.31112415 -2.2003746 0.84332776 -0.76264536
looks -1.1058178 0.57613975 -0.31721553 -1.388758 0.9037061 -0.47726926 -1.1306703 -1.6910118 -1.9564085 -1.727549
couch 1.0790042 -3.2652109 2.1638186 1.073887 0.119250074 0.8859684 -5.955673 -6.021669 -3.167387 -0.55895114
game -0.8247242 -1.4987106 -0.30702356 1.30817 -0.6231551 -0.8781176 -1.7307501 -2.4611645 0.17364073 -1.6392761
accessoriesoutdoor -1.2620354 -0.80235595 1.7470732 -1.7968581 1.1136298 0.017416347 -7.7353992 -6.1541657 -1.3818991 0.26342687
Eva -1.4262198 3.9254327 -3.7991984 -2.0983036 4.1176176 0.34556058 -2.5559926 -3.4875934 -2.4630368 -2.6478317
Prime 1.2310024 -3.4063747 -2.5328455 -1.4897062 5.732643 0.9165507 -2.7531936 -0.5957356 -3.417681 1.079804
plan 0.6327457 -1.2620695 4.296928 -1.4337583 0.70208037 -1.287727 -0.7343404 -2.435501 -1.5148951 -3.0082119
idea -1.6322527 -0.6300255 -0.591658 -0.7195988 0.6308407 -0.28161702 -1.0895958 -1.9449408 -0.38007212 -2.9598122
2010 1.5991204 -0.9386713 -0.18260719 3.0004268 0.5359505 -2.1026797 -0.7968832 -3.0708048 1.5648715 1.0076289
round 0.11570411 -1.0417361 3.2345777 -2.4837236 0.9238308 -3.6141448 -1.3889673 -2.384412 -2.0681999 -0.11658791
offer -1.1648376 -1.397662 0.32670197 -0.24422297 0.6630069 -0.6600182 -0.7746162 -2.0791225 -0.7530161 -0.48273632
Amber 5.2117424 -1.4525414 -3.6234443 -1.1121298 1.4346474 0.62879765 0.7769 -6.9810605 1.6188989 -0.0012771246
included -0.8453603 0.091073774 -0.96270007 2.3942986 0.60994923 -0.9132644 -3.5367312 -1.2477759 1.3444512 -1.5963159
sale 3.7173274 -0.0143434 1.5231637 -1.1838322 2.1987681 1.4170882 -2.2024798 -0.44955194 -0.7333911 -5.0727344
social -1.5793765 -2.474864 -0.27942133 -0.94836855 0.16780363 -0.44492123 -1.279879 -2.462513 0.74125683 -2.2981489
we’re -0.52920264 0.233773 0.7427794 -1.5509288 0.47873387 -2.0153527 -0.58666956 -1.6562113 -0.73832595 -4.892242
Porch 3.7914064 2.2974176 -4.975549 4.0574923 0.661362 -2.8054872 -1.9258523 -5.646299 -1.8590151 -0.83599025
delivery -2.3874102 -1.0740167 -0.6797732 3.3451612 -0.5193264 -5.260694 -2.8325822 -3.856486 0.35492086 -3.315806
of 0.62984747 1.3557459 0.56423473 -3.060822 0.51891065 -0.99919003 -0.90509844 -2.4160514 0.84638107 -0.8413095
reserved -1.1181866 1.5289664 -1.1480252 0.38244483 1.3614224 -1.58644 -1.7506407 -4.3686104 2.1911156 -0.3872909
women -1.1173383 1.0474106 2.3609915 -0.6576768 2.6760528 0.50397617 -0.97014713 -2.1106496 1.1201025 -0.93269914
review 0.94884884 -0.36442652 0.53833437 -1.390826 0.05642505 1.9439108 -0.9912621 -2.3282313 -0.8909691 -2.662311
job -1.1154661 -0.24570118 0.5784127 -0.15816917 1.729956 -0.83563566 1.0508051 -2.2215977 1.0288359 -3.6220417
United 3.909286 -2.6897407 3.5935245 -2.2854316 1.4137052 -1.9608306 -2.0511737 -1.799683 1.5066427 -0.61428636
covers -0.36027485 -2.5901392 3.0923183 0.65165675 3.0885103 -1.0128118 -1.4321514 -2.5710962 -2.1322515 1.560689
news 0.42525706 -2.5959275 0.24679607 -2.1828642 0.6347025 -0.70133346 0.055063266 -1.2850499 -0.2234132 -2.0268312
table_covers -0.56428915 1.4111967 3.5050235 -2.4546223 8.021573 0.3420638 -0.3258537 -3.2232044 -2.758319 -1.7245264
pretty -0.5863228 -0.8236767 0.68167746 -0.23358834 1.3332801 -0.69758534 -1.1727098 -0.7807136 -0.16131055 -3.7616541
Washington -0.10592442 -2.4903355 -0.38067874 3.0656922 3.352312 1.7603692 -0.06690516 -3.0159824 0.62094474 0.10643497
umbrella -0.34305286 1.0983107 4.3963757 -1.5525588 7.2471485 -0.16918579 -0.50501025 -3.04833 -2.6576633 -1.224186
Store 1.3397976 1.3844771 -1.2770358 0.5590261 1.8443544 -2.3937476 0.421728 -0.9218765 -0.41323373 -2.2313788
mean -1.8091135 -0.17772534 -1.4647926 -0.27984107 1.3912796 0.5300421 -1.0989233 -1.5509192 -0.9547866 -3.4019578
management 0.31773093 -0.796577 1.1177441 -1.3276095 0.45591244 -1.5504061 -0.38126427 -2.4918914 3.3331702 -3.3831975
Up 1.6843339 0.86290807 -2.4075263 -1.7967477 0.73118645 1.3886695 -1.5576503 -1.8459841 -0.00017814185 -1.4791528
common -1.4647195 -2.5068312 2.7231905 -0.4448221 1.5930425 -0.9785244 -1.9572691 -2.0626233 -0.14185537 -0.8632277
Old 1.5512232 1.006052 1.7135429 1.622754 5.035793 -3.715644 0.072852015 -0.28830042 -2.837185 -1.6676171
color -0.98539764 -1.4813617 0.06543287 -0.7130616 0.6975954 -0.49257243 -0.6111684 -1.8026669 -0.84234464 -1.2402638
amount -1.1232473 -1.7402188 1.0854917 -0.4639209 2.1477945 -0.65281385 -1.0796221 -0.6372648 0.72057134 -2.1287932
How_get 1.7337486 -3.1785548 1.0963097 -1.6097337 4.2667747 -1.6038065 0.6602449 0.33094245 1.2858875 -2.587853
about -0.5974929 -0.6580942 0.20433062 -1.6633289 0.62554586 -0.27587095 0.11957117 -2.030288 -0.7535336 -2.7035396
report -0.4526747 -1.3385639 1.9483807 1.7501587 1.1554949 -0.2816381 0.40655777 -2.848382 0.08848794 -2.0406668
hours_ago 1.429813 -0.30924377 -1.7243117 0.5198873 1.4510874 -2.7340176 0.51798826 -0.7398212 -0.007642496 -0.71867776
Gracie -2.8780134 1.2223366 -4.3396697 2.14963 5.248497 -0.36663818 -2.6713376 -4.4248557 2.0788937 -0.16542712
chance -0.3628693 0.1223958 0.22060768 1.2680959 2.5062444 -2.145113 -0.46930027 -0.07133732 0.13649985 -3.4194221
article -0.26953793 -0.6501456 -0.9854827 -0.6768551 2.0211673 1.0916586 0.13807419 -0.9634846 -0.08432259 -1.7525092
call -0.40780684 -1.0212017 0.6306415 -0.18903074 1.5858679 -2.4742153 0.03639302 -0.5836207 0.876614 -2.3017995
traffic -1.917127 -1.6607133 1.3030534 -1.5848482 0.8353081 -0.7270314 -1.3258648 -2.5605583 1.1362712 -2.7337167
Gas_Grill 2.655465 4.4860396 -1.0047915 2.2050202 5.428284 0.7781916 -1.5382589 -2.9736152 0.10510881 -1.402356
across -1.3262724 -1.2116065 -0.033752486 -1.4174032 0.6710785 -1.461187 0.01536747 -2.7724133 1.3552777 -0.53514403
Kids -2.2086647 -0.0008048614 -1.9213718 2.2806153 3.7949536 0.31295356 0.75875586 -3.0852423 -1.8349156 -2.247619
Can 0.73877203 0.07619922 -1.1275829 0.037962455 2.8208518 1.8518941 0.30928797 -0.9203418 0.028488109 -2.3080792
Natural 1.5717353 -1.1341852 -3.7377117 -0.12678973 4.516908 1.0541514 0.08632174 -1.2851797 1.072273 -0.18727936
loss -1.2937024 0.07804555 1.6488867 -2.6724596 1.3681004 -1.4220454 -1.1969041 -2.1425827 1.483457 -1.656472
value -1.6208403 -0.5362814 -0.45374578 0.02874695 -0.43116307 -1.8273504 -0.97837245 -2.885703 1.1728791 -2.8352842
whole -1.6498214 -1.0287861 1.0984232 -0.5712803 1.0992573 -0.26779398 -0.93485993 -1.8960052 -0.7410805 -2.5568817
trying -0.94658345 -0.1805049 0.7444173 -1.1175029 1.9060202 -0.9190394 0.9462462 -1.7821646 -0.033851907 -3.6946857
promotions 1.5151019 0.50611 0.059542786 -0.4252748 1.4237558 0.1965483 -0.014533018 -1.9536964 -3.110285 -1.5267898
known -1.0940887 -1.3764664 0.12489149 0.1625795 0.5043437 -0.89875096 -3.21649 -1.5525591 1.7305415 -0.7475335
Basket 2.5528042 -3.3765223 -1.1174093 -1.6228157 2.7160468 3.8782485 -3.1617503 -1.3772327 -1.0922672 -2.4323435
Stock 4.1372285 -2.9845638 -2.8959877 -0.15317453 3.140928 -0.5537594 -2.5061522 0.48924178 0.40029 -1.0403821
An 1.023898 -0.111620575 0.0020270322 0.039272435 1.3629827 0.61912596 -1.3337653 -0.6237388 0.47710833 -0.4460515
change -1.6483964 -1.1383505 1.2005684 -0.43425098 1.362294 -1.1982825 -0.33992854 -1.813487 -0.29232588 -3.065435
Glass 3.5127537 2.291561 -3.750551 -3.5897408 4.256381 -2.1313627 -2.2151523 -0.9567 -1.9937471 -0.32624742
costs -0.69413275 -1.6833786 4.410215 -0.8779034 2.38095 -1.7164996 0.11114675 -2.626048 0.048165075 -2.0427687
leave -1.7496324 -2.0700464 0.4346342 0.48636818 3.8660588 -1.7313182 1.3075336 -1.4722775 0.6899495 -1.2885079
Pack 2.9675148 0.70923173 -2.1505916 2.011029 1.9817494 -3.1151881 -0.9150283 -2.0608943 -2.92071 0.35260025
latest 0.9004477 -1.2233044 1.0137413 -1.664673 0.37980294 0.6975058 0.09764802 -2.1734028 0.35200354 -1.295006
browser -4.0644126 0.8027969 -1.5991114 1.8564498 3.8096154 -2.2733896 -3.4795465 -1.9541503 -1.0153664 -1.9342012
Was_review 0.32351413 0.81472224 -3.5644805 -0.08774464 4.1627135 0.9079622 0.9498744 -6.049842 0.6492979 1.1034224
breast_cancer -0.43182096 -0.5699201 2.4495533 -1.9215502 2.5586705 -0.038130477 -1.4770211 -1.1510198 1.5524095 -1.2214477
helpful_youÂ 0.36561236 0.0006264991 -3.383212 -0.8244701 3.0342226 -0.39075795 1.5469117 -5.114553 -0.10634033 1.1583997
Dayfor 3.810816 0.44463465 -1.7095224 -3.096472 1.995312 -4.590103 -1.8660607 -3.0338466 -5.4982314 -2.9843185
original 0.14442317 -0.99740845 -0.21948767 2.054139 0.26892036 1.5095416 -1.9370656 -2.1271207 0.3121975 -2.0581746
standard -1.3950351 -0.45042843 -0.63884556 1.1078653 0.05973196 -3.5097637 -1.2056239 -2.0109346 -0.45023546 -2.448679
My_Jam 0.8723351 2.4150095 -1.7181871 -4.600264 1.9117703 -1.2204994 -3.312333 -1.8092144 -2.0686126 -4.279224
large -1.3979383 -1.4335572 0.9301912 -0.69035345 1.4849064 -0.9249162 -2.1722977 -0.97177655 0.18809155 -0.9123425
All_rights 2.2764597 1.8137738 -1.3842969 -2.2823465 3.6197553 0.41208935 0.49295712 -2.5354111 -1.3220444 -1.8336599
extra -0.15385805 -1.3308817 -1.0416561 0.26599407 0.88923264 -2.435218 -1.1478286 -0.13484125 -0.60285515 -3.9216607
February_2012 4.1636662 0.31018773 -0.8808952 -1.7448511 -0.78427774 0.035984125 -3.2350965 -4.0725703 -1.6967384 0.27963713
Chair_Seat 1.9821923 -0.14865173 -4.1563897 0.5182422 4.5987926 -1.8635869 1.3380336 -1.3216518 -0.06913751 -1.3189638
Like 1.5042319 -0.57471746 -0.7948073 -0.5366845 -0.8094835 1.1335784 -0.5647009 -3.654364 1.3650435 -2.1301777
CharBroil 2.715382 2.4079185 -2.523883 -0.41550416 4.314636 0.45371538 -2.3198717 -0.37511495 -0.35130286 -1.8011254
control -0.7686661 -2.9890711 2.3060577 0.4517794 1.6142428 -2.0301754 -3.386519 -0.6142508 -0.31245783 -0.7565387
24 -0.39573362 2.9596379 -0.82168525 0.3770046 3.2477515 -1.4106146 -4.06832 -0.10039172 -0.54855704 -1.064422
media -0.4078944 -1.3465784 0.8485777 1.0255158 1.0489475 -0.66294163 -1.1366636 -1.4369874 1.6915098 -1.8987628
anyone -1.0010546 0.14959323 0.431213 0.13710399 2.3453236 0.42348477 0.18489759 -1.3622634 0.37885776 -3.1887648
everyone -1.5643929 -1.3127264 0.10797762 0.006775148 1.0272874 -0.5439205 0.6272235 -2.5824707 -0.97582144 -3.2302623
left -1.2627604 -1.4911727 -0.4058199 0.38958412 1.648618 -2.1508713 -0.39768434 -0.87668306 -0.40517136 -0.84644824
Forum 3.632122 -0.2480574 0.67314345 0.21457087 1.0428998 2.8897812 -1.9063821 -3.1544464 -0.69365156 -2.2047143
Getaways 0.7460315 -2.705567 -3.8539736 3.2428951 -0.0803236 -0.28875846 -4.5624943 -3.316243 -2.4750886 -4.910581
Hot 3.7659235 1.0056834 -1.927404 0.22489384 2.4457772 -1.4999666 0.57155496 -1.0278126 0.8946471 -1.1645616
Covers 3.060945 -0.77508426 -2.2086227 1.0895779 1.3992314 -2.6632714 -1.18759 -0.48155877 -0.753721 -2.7900157
Le_Creuset 1.8870546 -1.4284571 -2.4321537 1.0302491 2.224301 0.2312185 -0.77986723 -1.0520128 -2.4657793 -1.266954
Base 3.6248195 3.9264898 -1.9649978 -0.0052980566 4.586397 -4.289519 -0.5444359 -2.2635396 1.7989752 -0.67141736
digital -0.5741555 -0.7170995 1.7752553 -0.7112876 -0.37443653 -1.8951206 0.14401868 -3.5364032 -0.30272353 -1.8827312
Tabletop_Gas 2.388715 2.3611012 -1.6088616 1.1553067 3.7714925 0.8801887 -3.4404845 -1.4858333 -0.4805316 -1.29333
tags 0.8152 -4.2539787 -1.5925885 -4.986116 1.2015623 -0.44636852 -0.5929911 -3.848362 -0.3651841 -0.53466964
sold 0.9956108 -1.7772356 1.3817658 3.4461904 1.7077618 0.3022212 -0.6977208 -2.2299004 -2.0432706 -0.5720547
told 0.5018196 -0.44737026 -0.48685843 0.41704106 2.315104 -1.0679735 0.70756686 -0.22362082 0.037974905 -1.1267796
Flash -0.4066377 -3.0189762 -2.1480093 3.386954 0.8939506 -1.2483486 -4.729736 -2.866082 -3.0065913 -3.928955
Visit 1.9819725 1.2172062 -0.86199594 -2.007343 2.1111515 1.6594067 -0.08880916 -2.667125 -3.6740575 -0.7585621
Have -1.567908 1.9497783 -2.5934644 -0.8021388 2.8268433 -0.20195477 -1.9173759 -2.009399 -2.277558 -0.49606112
five 0.13387403 -1.4543458 0.83875537 1.2976505 0.22997971 -2.6209667 -0.32258368 -1.8991233 1.6265062 -2.262779
Latest 1.1089814 -1.2765034 -3.3234768 1.1904744 3.2027228 -1.2318125 -0.028592253 -1.2304254 -1.1207707 0.18540844
level -1.1945163 -0.7365231 0.66581416 -1.2612869 0.32882047 -1.1415089 -1.9920083 -1.9824079 0.16108394 -0.7221565
Bistro 1.0105475 2.9880116 3.2970815 -0.10803992 5.9774904 -1.9156123 0.86228883 -3.0028012 2.4126298 -2.3474312
cost -0.3733437 -0.021808684 1.6817635 -2.9283528 2.7488575 -1.479944 -2.1193054 -0.3518837 1.9002433 -2.1914797
Jason 0.63572305 -1.0391742 -2.210589 -0.015285338 -0.44147125 -1.4450238 0.44023913 -6.164011 -4.774725 -0.7818016
Share 0.3855972 -3.9892936 -2.1642992 1.1308559 3.2549615 -0.50551313 0.30605847 -1.4568679 2.249213 -1.466051
If_want 2.398735 0.1605485 -0.77204806 1.5260267 2.01497 -1.304514 -0.23501925 0.0025501247 -0.3984016 -3.1169467
May 0.89788747 0.25464925 -0.20774072 0.6162467 1.925646 -1.3143167 1.0217273 -3.0239105 1.8385562 1.2501585
websites -1.29801 -2.3827274 0.49420965 -1.2477549 1.8012532 -0.81709003 0.07708009 -1.3277997 -0.05424112 -3.0725386
lawyers -2.319958 -2.7387824 1.6755602 0.20675033 2.6533961 -0.5328325 -1.0456764 -2.0951426 1.1195425 -1.1581756
link 0.56155926 -1.2892196 0.5479912 0.37088785 0.2919665 -0.50593954 1.7127821 -2.8528986 -1.4153588 -3.1960945
United_States 1.0371208 -2.9644647 1.0011244 0.16837507 2.0364408 -1.5354335 -1.7500148 -1.4275414 0.4282381 1.7904502
Center -0.29478422 3.2935517 0.018120645 1.8710335 0.5182966 -1.9930264 0.03820363 -4.552204 -0.781364 -1.3967855
contact -1.6782452 -1.7362552 1.0504225 -0.48479477 2.801795 0.025878966 0.675706 -1.8242463 0.13501766 -2.0923023
Collection 2.2750835 -2.1942425 -2.8882382 0.12738268 1.9688631 -1.5993139 -2.3229082 -2.2126818 -2.5107064 2.4622128
record -0.6073098 -0.107316986 1.4931524 -1.6562101 0.70512074 -0.7730478 -0.59892 -1.9779699 0.15114337 -2.4258676
Recent_Posts 0.26949847 -0.18985191 -0.1532349 0.07119374 0.7203637 0.15050147 -0.28138927 -0.8632562 -0.24098763 -0.42175415
Choice 3.9646528 0.34664682 0.4712148 -1.3215572 2.0925312 -0.8673786 1.0072049 -1.8566134 1.5559278 -1.0573441
patients -0.7346248 -0.77536976 1.6391954 -1.3689506 1.9687287 -2.234457 -1.6024435 -1.013026 2.9486177 -1.904048
Griffin -0.4386368 1.0007355 1.3494309 2.3159108 0.51379335 2.083921 -2.828494 -5.864992 -1.0290941 -1.3790776
agree -2.1910896 -1.2317456 -1.5487206 0.96994936 3.0172613 1.51411 -0.41092733 -1.5234126 -0.92734486 -2.390496
line -1.0511539 -2.0273645 -0.5170504 -0.7135682 1.3035048 0.7701604 -0.13620597 -1.9266601 -0.39699692 -1.0800834
front -1.4204034 -1.7689 0.42575806 -0.7392425 2.1701212 -2.3055153 -1.0975343 -0.6038044 -1.8736626 -0.4393815
try -0.8768823 -0.9178961 0.9832483 0.1509764 1.50366 -1.5190259 0.046975117 -1.2885664 -0.63362974 -3.069172
course 0.13631067 0.74636954 0.7518353 -0.23398775 0.25517076 -1.6774247 -1.0683242 -1.167623 -0.40407568 -3.3289523
party -0.79179454 -0.12961537 2.853021 -0.18537669 0.8254419 -2.7092757 0.41948792 -2.956738 -0.95625466 -1.4823257
tell -0.47475415 -0.14738803 0.10987639 -0.43231776 1.353452 0.027912287 0.38028044 -1.7820113 -0.33619082 -4.33401
problems -0.18063703 -0.2653232 2.1008697 -2.012474 1.5268192 -2.0864232 -0.86923033 -1.4913423 2.3112187 -1.829932
DVAU 3.1114392 -0.8699642 0.2426285 -1.4341025 -0.23575634 0.56253743 -3.0160546 -2.4523413 2.4046552 -1.2438341
Feng_Shui -0.6987545 -1.2955871 0.40270835 -1.0024362 1.2593448 -0.66979676 0.05519232 -1.5666189 0.41751537 -0.7062148
mind -0.2106054 -1.002425 1.6086638 -1.0198013 0.7976413 -0.67454004 -1.0299753 -1.4888865 0.32841852 -2.3534846
Island 5.72483 -0.317421 0.71916884 0.7997339 1.6185268 -0.25893047 -3.008393 -1.1665833 1.1103681 -0.8560376
Android 2.1283314 1.11307 2.598745 0.5730683 1.1867108 0.34299883 -1.4212668 -1.6774119 -0.36747503 -2.9832845
success -1.0909688 -2.3420491 0.8080437 0.5177685 0.5007102 0.40044156 -1.9925764 -2.1889231 0.022592066 -1.6658686
came -0.990988 -0.81871843 -0.5415402 0.3314563 1.1528683 -0.6679869 -0.25954965 -1.2762995 -0.098462686 -2.4034007
Cast_Iron -2.7547736 -5.791712 -3.395576 3.9668195 3.8066652 -0.3889955 -2.2496657 -4.290677 1.7364539 -1.1701082
on 0.32288402 -0.727729 -0.32934138 0.34782654 0.64624923 -1.0740571 -0.3995881 -0.6662938 -0.60823363 -2.2482793
form 0.15280771 -1.553375 1.8848169 -1.5266286 2.2901304 -0.5325827 -0.537744 -0.42646018 -0.71300346 -1.0824413
history -1.1298654 -0.8425316 0.4214933 0.27879372 0.8886541 -0.76886225 -1.3539062 -1.5377043 1.3240966 -2.1673381
Yes 0.9963394 -0.039028473 0.09380136 0.19425622 2.9220443 -0.6738972 0.31079143 0.33848378 0.20374015 -3.0727103
ReplyFebruary_10th 1.7564658 -0.6158421 0.1936799 1.9626607 1.4998345 -1.7443453 1.5478703 -4.2666183 1.2552332 1.0795541
single -0.82668453 -0.8681957 0.65716565 -0.34906954 0.39192408 -2.1790378 -1.1288528 -1.7406852 0.3461461 -0.75310403
ways -1.8349396 -1.7789844 1.2220929 -0.25797626 1.4631158 -0.6541662 -1.6310482 -1.4913602 0.8541385 -3.1396701
sense -0.889845 -2.2441332 1.556367 -0.26098633 0.3645122 -0.855528 -3.37454 -1.4603956 -1.9551227 -1.8639534
black -0.1438006 0.07619254 2.1811726 -2.852085 1.224449 -1.0393753 0.1014734 -2.441961 -0.22290432 -0.6914402
close 0.17455187 0.14851864 1.3314478 -0.9786547 0.46605298 -1.5457236 1.0962179 -2.5665536 -0.055124365 -3.125402
pots 2.1173522 1.2089227 2.4707034 4.228394 5.065524 -0.5593422 -6.509818 -2.4329293 -2.433377 -1.1934632
New_York 1.6999348 -0.87728536 0.2207341 0.10492696 2.175197 -0.28262347 0.80675805 -1.1568743 0.7743281 0.40481335
Outdoor_Living 2.5819805 1.8821687 -1.157392 1.7888992 3.6338267 -0.6070928 -2.6350555 -0.0024240005 -1.03162 -2.60819
beautiful -1.0705575 -0.7438913 0.19410886 -2.245322 -0.6947933 -0.37719512 -3.7381897 -3.1756413 -0.069521844 -0.9878128
received -1.404974 -2.0287383 -0.6928682 -2.286529 1.6507819 -2.304394 1.1093036 -2.8232453 2.0244446 -1.2466123
Family 1.2067708 0.22857891 -2.4227476 2.479279 -0.33955145 -0.628407 -1.1780236 -2.7378182 -0.6430191 -1.9587246
X 0.38705233 1.7918909 -2.534039 0.78847915 3.8546152 -4.1571903 -4.5854115 -1.2653327 4.8090367 -0.931871
Life 1.7885258 1.8235985 -1.6055202 0.30206195 0.5767804 0.6876224 -2.4550633 -2.2499225 -1.2803419 -0.68368477
Product_Feature -0.34770837 0.3007045 -1.7431477 0.11569571 3.254586 -0.8123211 -5.51452 -0.29296544 -1.3889105 -1.1498666
OF 2.2599545 3.4795177 -0.2465214 0.060408253 2.8742256 -1.0749905 -5.143567 -3.1887014 3.9271638 0.4935051
problem -2.0157092 -0.28144798 0.6683318 -0.15594776 2.0807319 -0.8861808 -1.2860413 -1.1568892 0.56964844 -3.1578457
Art 2.510711 0.24773824 -0.8555854 0.94215614 3.1422658 1.9327186 1.7681975 -4.3619065 -3.2589684 -0.53727025
results -1.1262048 -2.4936643 0.49585503 -0.6670826 1.3700637 0.11115796 -2.1697016 -0.9654469 0.51374894 -1.8519546
involved -0.92940587 -1.7780927 1.1393827 -0.4049045 2.21265 -1.7812673 0.61616707 -1.3054202 0.80943596 -1.4888781
age -0.4403986 0.009736825 1.0147194 0.05741899 1.4730418 -1.8775268 -0.38186064 -1.1881676 1.5522015 -1.6028848
Adirondack_Chair 2.656715 -1.5825976 -4.354236 1.3787978 1.348112 -0.07818804 -2.3329449 -2.9634116 -3.9849727 -0.46090823
guide -0.18997304 -0.11417891 0.31251597 -1.8296502 0.29077488 -2.1113503 -0.48372164 -1.3647567 -0.27848116 -1.2523639
kitchen -1.3477426 -1.5975826 1.8549032 -2.7048054 0.2728184 -2.1429224 -4.613955 -3.7974439 -1.3772111 0.4087946
plastic_chairs -0.94889283 1.9500092 0.28758022 -2.1066303 2.5485466 -0.33205694 -1.8330567 -8.796544 -1.9113455 2.514108
Reclining 4.017213 -2.5601437 -4.720531 -1.4085937 3.135402 -4.3776555 -0.65993667 -1.154761 -1.2617124 0.23441586
Javascript -3.9257395 1.9652534 -0.21174605 2.7494276 4.8493924 -4.4203153 -1.8749412 -4.3769145 1.3713785 -2.0538695
Year 3.4997735 1.3700328 0.22193992 -0.7754316 0.6098282 -0.08114797 0.37371522 -2.310546 -1.3911235 -1.6304767
shipping 0.5079641 -3.6850653 -1.0982574 1.0514498 2.5775557 -4.319763 -2.962677 1.4549481 -0.3697845 -3.726719
album 0.017758999 -0.31208912 -0.7450031 0.039630346 0.64474374 -0.39178023 0.5167618 -1.7642387 -0.94922394 -2.9294624
especially -1.7111233 -1.2302247 0.5721765 -0.42835963 1.0167215 -1.7188356 -0.7148776 -1.6145303 0.139068 -2.9414487
furniture_warehouse -3.9472084 0.9146546 -1.3415658 -2.429738 5.4468255 -3.872035 0.028173132 -6.0546503 1.7525029 -0.13027236
Stand 3.0032635 -3.6690044 -2.7013633 2.6560774 2.7822568 -0.32327047 -3.77239 -1.2861998 -3.0557108 0.32437894
all -0.24489008 -0.06690453 0.35505798 -1.2044562 0.58537745 -0.93637246 -0.33365437 -1.440503 0.22074991 -2.2751029
Copyright_2012 3.9167259 -0.6258957 -0.31525183 -1.0263762 2.1683795 0.36102268 -2.3303378 -0.6791893 -1.5324873 -0.56335366
furnituredesigner -4.2539954 0.25701538 -1.6261531 -3.13558 5.645056 -1.7897931 0.02833561 -7.136858 0.10510061 0.83297527
Log 1.125185 0.7273588 -3.678767 -1.0288795 1.1143861 -0.9814691 -0.6054885 -2.039541 0.057138976 0.0681544
What_HIV 1.5134277 -0.8134667 3.1184082 -1.6715955 3.1206656 -1.5128022 0.62147784 -1.744472 2.0326948 -2.160509
deal -1.205759 -1.936257 0.73139054 0.623964 0.852798 -0.67785907 -0.20983675 -2.1672604 -0.98774755 -2.7438066
iPhone 3.090796 0.6899647 3.0424438 0.46222195 0.8358037 0.054527275 -1.8682296 -2.3932922 0.3952866 -2.409046
along -0.5220444 -0.91049856 -0.98981196 0.024262019 0.15234868 -1.4413507 0.15413119 -1.9993675 -0.751482 -1.969214
Wall -0.62604535 -1.0477071 -4.7899885 -1.0636636 4.4356856 -3.9532018 2.2920837 -2.3025959 1.6867425 -0.10796432
recently 0.517006 -0.4277791 1.0012883 0.14815359 0.63483083 -1.4290471 0.9558963 -2.1716604 -0.06886762 -0.8002428
question -1.1752526 -3.8605485 -0.17457233 0.26067373 2.0518003 0.9362006 -0.6378984 -1.4649178 -0.07393896 -2.5783172
couple 0.7243688 -2.5277128 0.823647 1.1742122 0.7312525 -0.58318 1.358542 -2.882555 1.2053072 -1.4538715
Watch 2.298692 -0.074944794 -0.98316324 1.5235778 2.4377525 2.2187994 -0.09895002 -1.8291708 -0.08988913 -0.94669676
click 0.39628318 -2.0657985 -0.28123656 -0.2520639 0.12580077 0.5914778 0.996116 -2.7394803 -0.9690937 -2.5160801
Mobile 2.6133947 0.44254935 1.8756636 0.8170544 2.1393142 0.8287929 -2.293954 -0.6184677 -1.4055746 -0.70862466
National_Geographic -0.54466563 2.793301 -0.06669808 -1.7907976 3.4683661 -0.61379915 -1.9690809 -0.9994882 0.091881834 -1.8704498
Selection 3.790033 -0.9973839 -2.859552 -0.6271907 2.9784749 -1.1856812 0.4187873 -0.094861776 -0.80031544 -1.6383675
DC -0.06439454 0.62425524 -0.32460696 2.5611746 4.281074 1.2908391 0.47190708 -1.9436405 1.6365117 -1.6300473
30 0.930776 -0.07669629 0.48493397 1.2394787 0.17844056 -2.206841 0.87305206 -3.0094626 0.77025336 -0.23883879
there -2.0783799 -1.4703747 -0.5433179 -0.29598278 1.4813554 -0.41740626 -0.8960256 -1.4932433 -0.23936948 -3.1740983
Marketing 3.3791366 -0.4402529 0.019478817 1.0000156 2.6035523 2.874905 -1.7492329 -2.5166185 -1.6486369 0.5206793
guarantee -3.5381591 0.6614108 -1.9519421 0.72948873 3.3217087 0.04797886 -2.9873424 -1.534992 -1.5405906 -2.3277202
Michael 1.3605187 -0.61308736 -2.8049972 -2.7900872 3.9252243 -0.85603863 1.3331062 -1.1345282 0.97714674 0.55787796
John 0.57793295 2.1359148 -2.14437 0.5247707 -0.28381547 -2.8997126 -0.4523709 -3.5683956 0.6020502 -1.1944338
brand -1.709617 -0.8990089 -1.2605075 0.5097559 0.08958927 -1.8026079 -1.7247714 -1.6955835 -0.7750647 -2.2765539
serious -2.108415 -2.6484892 2.231126 -1.4105346 1.649834 -0.72441036 -1.5722427 -3.2446663 2.6398928 -1.3823038
January_2012 3.1527188 0.7357167 -1.6866412 -3.2544305 -0.51981705 -0.12614495 -5.4333663 -3.5046926 1.1883612 -0.9574999
file -1.2146149 -1.4655677 1.1244262 -0.054503918 1.8440427 -1.4244117 -0.026983967 -1.3662356 -0.6795931 -1.1822245
open -0.63205737 -1.6302265 1.4919653 -0.37713122 0.9149024 -1.512317 -0.73373187 -1.7056677 0.4534078 -1.1380446
city -2.0582824 -0.5360017 -0.23479903 -1.1424116 1.7185484 -1.8569281 0.23863043 -2.0872445 0.016577967 -0.8643073
hours -0.53827524 1.5898191 -0.14893456 0.50561124 2.11654 -1.869855 -0.76700246 -0.5589061 0.42279157 -0.6988212
South 2.57465 -1.1166162 -2.34499 3.2224069 0.70281553 -2.2855916 2.5468493 -4.930161 -2.1696498 -1.046161
Click_read -0.6690504 1.3322735 -2.0955791 3.6168866 3.3708515 -0.62991387 -0.8246837 -2.811484 -1.3689663 -2.677877
Of_Cancer 3.8517666 -0.25089902 4.04984 -2.294105 5.3146896 -1.7298832 -4.063119 -0.8860494 1.0291914 -1.0619432
